68 128
47 0.20814647 -0.25095046 0.23951466 -0.31347016 0.0037910638 -0.41248634 0.1670685 -0.27143362 0.14717601 -0.16757841 0.4176965 -0.0070057972 -0.033640802 -0.4053155 0.036165535 0.062910125 0.01907363 0.11603774 -0.15549812 -0.08710598 0.18769301 0.13028486 -0.01445143 0.001307588 -0.051919717 0.060706206 -0.2729357 -0.3193588 0.021083836 0.15851891 -0.26746297 0.14263828 0.026023816 0.10715915 0.052540075 0.075655386 0.24024872 0.15720282 0.14371361 0.05393177 -0.07416802 0.2841517 -0.12758693 0.06126161 -0.10283818 -0.040510133 0.12147749 -0.1894785 -0.09692686 -0.0026225117 0.13956925 -0.06701911 -0.047008846 0.13765554 0.038722254 0.126923 0.3334806 0.085974194 -0.1866381 0.024905559 -0.04163221 -0.24820621 -0.15895386 -0.2629695 0.08563307 -0.070131384 0.1694684 0.074957006 -0.054715298 0.035151877 0.041287255 -0.24803892 -0.2529978 -0.2162741 -0.18549106 -0.002720656 -0.04588926 0.13242511 -0.17958155 0.07623983 0.1909818 -0.235401 0.22321975 0.5518996 -0.09377819 0.2945124 -0.07232225 -0.3021107 0.078031495 0.3340237 -0.4201843 -0.03904525 -0.33828223 -0.04383922 0.37926418 -0.19726937 -0.023745347 -0.09354006 -0.068923905 -0.30204207 -0.1493638 -0.117327996 0.053212587 0.10543427 0.16776687 -0.15172713 0.11385331 -0.17587915 -0.1294918 -0.358687 0.060261182 -0.01959502 0.0523495 -0.042239584 0.17817575 -0.15106668 -0.20630012 -0.08983628 -0.025964921 0.15131004 -0.018092826 -0.22346807 0.007434561 0.08419327 -0.0062506557 -0.0032202366 -0.16313185 0.088096514
16 0.2144716 -0.18176843 0.22738795 -0.34639323 0.098340265 -0.37376013 0.23582728 -0.26911876 0.17673121 -0.16968064 0.44586244 0.037412997 0.0041315667 -0.43740633 0.04484925 0.04682354 0.035706546 0.15157068 -0.15433739 -0.07000449 0.14101061 0.11192389 0.0033745398 0.0053941603 -0.0280894 0.11171049 -0.19381729 -0.21603128 0.017655803 0.13275571 -0.22473066 0.17286351 -0.016333643 0.1299439 0.022753546 0.09530571 0.25092223 0.16828088 0.19646144 0.01693834 -0.08891295 0.32167476 -0.14832057 0.0544743 -0.07387032 -0.051010873 0.17197779 -0.22903775 -0.08638025 0.006110461 0.16247763 -0.10357333 -0.044076405 0.2048574 0.047999073 0.1343037 0.35362154 0.04608531 -0.16464454 0.10009289 0.007238506 -0.21172167 -0.117022604 -0.21983953 0.09784973 -0.06551608 0.16422695 0.09547823 -0.11258455 0.00808638 0.033692047 -0.27946317 -0.2366606 -0.18466392 -0.17828073 -0.032280635 -0.042344075 0.14094353 -0.24949034 0.054800607 0.20708132 -0.28833368 0.1819798 0.5774503 -0.065051585 0.35590526 -0.06668915 -0.3613514 0.069420435 0.40047544 -0.48376852 -0.0040644472 -0.3407807 -0.09167206 0.37925124 -0.23017502 -0.051327292 -0.1642629 -0.065750465 -0.25095102 -0.16876863 -0.122668214 0.059957314 0.11551619 0.18191631 -0.13895297 0.046159927 -0.19763936 -0.10131802 -0.33231848 0.10916757 -0.029417565 -0.0027293607 -0.027257461 0.11713295 -0.049748275 -0.20918041 -0.0499462 -0.05606507 0.1429484 -0.03164658 -0.16881308 0.014630004 0.12683196 -0.096872926 -0.09432723 -0.10600746 -0.04343025
15 0.21729559 -0.28347322 0.22427012 -0.33088675 0.03126783 -0.38326114 0.1356868 -0.30114174 0.15899295 -0.17679638 0.40958285 -0.010027671 -0.026392115 -0.45308915 0.07258954 0.0738186 -0.064094655 0.0927445 -0.1466737 -0.08771831 0.18594517 0.08873423 0.029595269 -0.0045777364 -0.013686326 0.06794936 -0.2986256 -0.253841 0.07903157 0.15689175 -0.26011106 0.13353114 0.043953888 0.20262952 0.013692475 0.1753577 0.21415678 0.12268957 0.14988944 0.058571436 -0.032067105 0.2632716 -0.12681626 0.04451546 -0.05066859 -0.039103583 0.09227229 -0.26177067 -0.11058909 -0.058395147 0.17985229 -0.050522447 -0.121341705 0.09742511 0.0072273975 0.12360287 0.30676162 0.084955335 -0.18354188 -0.04135153 0.00063248514 -0.24534959 -0.14543463 -0.20123884 0.044015363 -0.07281466 0.15385213 0.04047164 -0.05359214 -0.007874407 0.090900116 -0.29085252 -0.3241059 -0.22740856 -0.1594371 -0.06311353 -0.09593768 0.15475793 -0.19545342 0.14211904 0.1684299 -0.16778433 0.21123601 0.536864 -0.09728101 0.24384989 -0.077859 -0.2823263 0.091070965 0.36425254 -0.41327676 -0.028330391 -0.35048136 -0.048887193 0.3968215 -0.25489706 0.003397368 -0.14649546 -0.13928011 -0.25500938 -0.14067417 -0.040973004 0.029827755 0.10983691 0.20378497 -0.14873457 0.08117836 -0.22599885 -0.069551796 -0.337491 0.09164083 -0.039583497 0.026122361 -0.06971052 0.081291035 -0.048130985 -0.1409039 -0.010120352 -0.017729042 0.10378409 -0.035985645 -0.12597755 -0.03595204 0.13901365 -0.09123314 0.0024201334 -0.20356964 0.030967299
66 0.16899054 -0.1851549 0.22449613 -0.27805638 0.051678743 -0.36104468 0.14502025 -0.20726222 0.22048852 -0.1504363 0.43237326 -0.015165356 0.057414763 -0.4482545 0.13459656 0.058826182 -0.055653665 0.106766276 -0.21958183 -0.04916553 0.18643224 0.13963358 -0.009422325 0.032676756 -0.057897292 0.070874736 -0.25251848 -0.22231735 0.072039895 0.13219343 -0.27119964 0.13802035 0.054880466 0.20273168 0.023781128 0.18812987 0.27766 0.12445738 0.195761 0.05417397 -0.009690999 0.2941086 -0.10575508 0.09077421 -0.0769788 -0.025762418 0.081842296 -0.23387116 -0.088669844 -0.13892142 0.21148077 -0.057718664 -0.11158783 0.158241 0.08722107 0.15012954 0.30756098 0.050562784 -0.17013052 0.017670184 0.05498438 -0.28788653 -0.17457747 -0.24761501 0.09276345 -0.128651 0.1112392 0.007247519 -0.08499555 0.047363423 0.048324827 -0.2625039 -0.35487404 -0.1460577 -0.13771252 -0.040756755 -0.05600058 0.0648956 -0.16068271 0.16496558 0.17907295 -0.17683733 0.1971497 0.45739383 -0.019407991 0.26835272 -0.09324187 -0.28480068 0.061855525 0.33355704 -0.40374562 0.08091628 -0.27691734 -0.045953047 0.36026716 -0.18698055 -0.059776653 -0.091004804 -0.108651266 -0.22890481 -0.12433616 -0.06562701 0.10031257 0.046858612 0.16982731 -0.1473273 0.03607532 -0.22383742 -0.009342442 -0.29857957 0.15046827 0.020998662 0.06556168 -0.005735845 0.10009474 -0.06338529 -0.21006274 -0.043139085 -0.095923565 0.08181833 -0.016585456 -0.12575324 -0.019071225 0.12669174 -0.1061125 -0.046125066 -0.10764903 -0.029445061
64 0.14313033 -0.3064547 0.21012603 -0.3524433 -0.0051903417 -0.37240925 0.19566356 -0.31839055 0.13188723 -0.19243102 0.37515232 0.042161003 0.046689134 -0.45787728 0.15978588 0.04314162 0.04666293 0.07397917 -0.10978191 -0.16959117 0.12593399 0.2013036 -0.1056772 0.008085332 -0.024815002 0.09350391 -0.20898068 -0.28304455 0.106943056 0.092548564 -0.28663093 0.17023821 0.022235442 0.1684235 0.039516553 0.20516202 0.2529689 0.18421425 0.16023733 0.020685295 0.009977313 0.32095596 -0.12703128 0.18943824 -0.05747159 -0.07756646 0.1089564 -0.29033673 -0.025556395 -0.076850876 0.1696796 -0.0972004 -0.012866062 0.16434032 0.0921299 0.11380389 0.18274194 0.07848951 -0.1455149 0.12834014 0.035100084 -0.1455786 -0.089663394 -0.14598605 -0.017780641 -0.049616747 0.124166265 0.035222687 -0.08868768 -0.06858681 0.105556756 -0.31258672 -0.24078646 -0.19006315 -0.13102888 0.04599202 -0.10920717 0.08239987 -0.1568563 0.11825346 0.10269281 -0.24088313 0.2339399 0.5347713 -0.029149173 0.26973972 -0.11874 -0.26987636 0.008463035 0.31379434 -0.48099348 0.09945782 -0.2240767 -0.028154284 0.3615244 -0.13938898 -0.059268586 -0.11603631 -0.043544054 -0.23814762 -0.112485416 -0.11322085 0.098012835 0.092967935 0.2663191 -0.12699355 0.062131245 -0.24580579 -0.00017548654 -0.33048505 0.11820047 0.05534602 0.06688033 -0.09298562 0.059264068 -0.0800872 -0.19979057 -0.074873514 -0.05788375 0.20701858 0.018461484 -0.15989716 -0.060139317 0.13464294 -0.11999958 -0.1011536 -0.14276333 -0.031708423
23 0.17901172 -0.30825326 0.3102414 -0.36659634 0.06635349 -0.42513913 0.15025784 -0.30586684 0.16461602 -0.15342057 0.39393112 -0.04759994 -0.050977536 -0.47433543 0.118983805 0.032062937 0.057479445 0.07554771 -0.15324773 -0.06691713 0.22289616 0.19148718 -0.025366902 -0.069807075 -0.0892597 0.024964254 -0.29322344 -0.21608439 0.11082787 0.1528948 -0.2921888 0.16845757 0.035249364 0.25472263 -0.037289962 0.188996 0.24016678 0.10416016 0.16556513 0.031059103 0.016001243 0.24962175 -0.10211301 0.10192356 -0.04320092 -0.046641976 0.090488955 -0.20088446 -0.07445293 -0.061390318 0.2260048 -0.05580206 -0.12433037 0.14976892 -0.028368786 0.1038921 0.26039582 0.066673934 -0.12351358 0.06834275 0.0014439999 -0.20123608 -0.101137936 -0.21334918 -0.0033240155 -0.10322491 0.08518006 -0.0016702745 -0.1320523 0.041158132 0.06451358 -0.2790829 -0.2877627 -0.17685784 -0.09416317 -0.029290441 -0.06680522 0.102434635 -0.17540364 0.06465516 0.07682792 -0.1324718 0.20251022 0.4273382 -0.024259344 0.264651 -0.11172882 -0.25288934 0.009639647 0.3504966 -0.4624696 0.041965146 -0.31304553 -0.091254026 0.3286007 -0.14672501 0.026905796 -0.11772866 -0.1093807 -0.21150845 -0.117585 -0.069226995 0.12827785 0.060944367 0.31436363 -0.15564963 0.0433395 -0.28289646 0.006374654 -0.3492877 0.074049115 0.06009927 0.058292318 -0.09026622 0.10533497 -0.05497495 -0.2273422 -0.08480435 -0.11088464 0.17005998 0.051846292 -0.15843448 -0.026684208 0.20381477 -0.09385922 -0.07069092 -0.20381555 0.033608824
21 0.21361731 -0.18393007 0.21617597 -0.26025277 0.060784183 -0.32941344 0.17936882 -0.25299183 0.2557557 -0.16703613 0.39071077 -0.020973867 0.04881782 -0.39246777 0.06823743 0.09583089 -0.025287747 0.06126642 -0.19868137 0.008746892 0.18744975 0.06700836 -0.05386294 -0.013720853 -0.13528869 0.21029635 -0.26479548 -0.29196602 -0.0057548517 0.09839636 -0.22588576 0.13057992 -0.011970433 0.19397102 0.07702486 0.08717303 0.27214402 0.15147325 0.19177957 0.053308014 -0.14077075 0.3043414 -0.077927396 0.039679978 -0.05471508 -0.07245214 0.12778273 -0.20036283 -0.1227317 -0.06149089 0.17485306 -0.07853839 -0.028065797 0.17417836 0.029713403 0.1626336 0.34534925 0.0788254 -0.16178618 0.0036867508 -0.024449453 -0.24817702 -0.13340043 -0.20184457 0.13430975 -0.10561066 0.13679981 0.05750853 -0.111872785 0.032043267 0.06822076 -0.25928533 -0.31371677 -0.10775519 -0.13128424 -0.040639218 -0.023937413 0.07000457 -0.18521972 0.11859395 0.17994918 -0.29120892 0.17023633 0.46202254 -0.041158188 0.2633792 -0.030602887 -0.24428825 0.107028745 0.29745227 -0.33164853 -0.095231414 -0.269692 -0.108552195 0.36220455 -0.22006077 -0.059172597 -0.11508043 -0.11725393 -0.24785411 -0.1465226 -0.11280937 0.05375694 0.065945014 0.12680924 -0.13072278 0.04144337 -0.19495931 -0.08044137 -0.31741357 0.11756357 -0.0035212864 0.03384526 -0.023004893 0.15562241 0.002955973 -0.17991082 -0.015080494 -0.04700759 0.08041777 0.016517535 -0.15745185 -0.0021875517 0.16360764 -0.09678327 -0.06779403 -0.0641477 -0.052833
19 0.17877857 -0.15349992 0.2164166 -0.37226054 0.13930185 -0.3812652 0.18742646 -0.2723229 0.15387985 -0.19030054 0.40418345 0.030917343 0.003967108 -0.45509213 0.068884425 0.053473525 -0.009554237 0.06734935 -0.18562157 -0.060725193 0.22874719 0.07094286 0.0958769 0.018603621 -0.050687708 0.07460663 -0.31290972 -0.29087695 0.09059995 0.14559099 -0.34955588 0.16540456 0.04109273 0.15745832 0.049669802 0.12124209 0.21578686 0.11528141 0.12858857 0.047656093 0.041471217 0.26864117 -0.1252676 0.097603954 -0.06395777 -0.049496584 0.07297642 -0.21305844 -0.088784665 -0.016478 0.15879211 -0.0801685 -0.12077508 0.20038386 0.02178775 0.0679245 0.21830471 0.121468425 -0.18580699 0.045837715 -0.030091431 -0.22924039 -0.09336474 -0.26399383 0.022824626 -0.098811686 0.07207521 0.023920534 -0.10040627 0.050477237 0.039313722 -0.24460982 -0.18321134 -0.17073084 -0.16317582 -0.0102143455 -0.08969275 0.060467597 -0.20950483 0.09717085 0.21550556 -0.15271233 0.1761822 0.45300043 -0.034734417 0.31005213 -0.15634158 -0.27455494 0.07086979 0.3562082 -0.52487284 -0.04792348 -0.24950185 -0.06932641 0.28796628 -0.2023602 0.049190193 -0.05625363 -0.05306711 -0.2646114 -0.096877456 -0.06611298 0.05293191 0.11946875 0.16531302 -0.1806057 0.11452049 -0.1942958 -0.071901836 -0.33212364 0.04814227 0.015034494 0.1148925 -0.07908545 0.118770495 -0.19359644 -0.21766257 -0.09520115 -0.055166278 0.16863184 -0.034937467 -0.24116692 -0.030179495 0.14439987 -0.08549519 -0.05794629 -0.20921917 0.07999109
61 0.2303916 -0.25649095 0.28257984 -0.38645086 0.05415182 -0.4268617 0.18664035 -0.29650256 0.24973983 -0.16298205 0.49110743 -0.013826587 0.029157475 -0.4619761 0.090010695 0.060318675 0.051434763 0.08998172 -0.16674684 -0.106648654 0.21661855 0.20167355 -0.12012847 -0.05685071 -0.114714764 0.08366421 -0.26399547 -0.3215445 0.0582257 0.17881788 -0.26865542 0.16781251 -0.0068972977 0.16595116 0.09204157 0.16733469 0.25798607 0.13499647 0.19387057 0.017868383 -0.10065994 0.37382486 -0.15999685 0.06452921 -0.08910747 -0.09674562 0.09431018 -0.17106704 -0.10344214 -0.052890524 0.14182265 -0.053896323 -0.031893373 0.15207012 0.032280173 0.078217946 0.25374871 0.07738828 -0.094654724 0.047457058 -0.0331188 -0.20735697 -0.16818772 -0.19004698 0.061883286 -0.065761805 0.07367039 0.06639112 -0.13358033 0.031414345 0.015571287 -0.26064664 -0.23375683 -0.1568902 -0.08970845 -0.02443974 -0.0086462265 0.11186763 -0.18623027 0.030607572 0.10062731 -0.30426854 0.19316804 0.5278466 -0.022350473 0.31234166 -0.03811271 -0.26825473 -0.011478153 0.33886644 -0.42460895 -0.037037373 -0.24174331 -0.1285232 0.36924848 -0.22535022 0.019026227 -0.11801079 -0.09801523 -0.29046902 -0.15932818 -0.17257425 0.0734012 0.046597857 0.20503552 -0.16594446 0.038075987 -0.19017862 -0.019135088 -0.35416165 0.118973255 0.026552903 0.054836348 -0.064773545 0.12787993 -0.06264184 -0.2473527 -0.07613529 -0.120472126 0.13450462 0.022216728 -0.21539675 -0.00016481316 0.21200779 -0.12454682 -0.076849796 -0.13622856 -0.038211178
46 0.22364329 -0.2801554 0.24125503 -0.37945625 0.06454873 -0.35671195 0.2308571 -0.30606434 0.19472156 -0.18518893 0.4187332 0.041132882 0.041664176 -0.42696813 0.105454706 0.05895184 0.019809516 0.097651124 -0.13813591 -0.09941919 0.16929814 0.08499454 -0.07151752 0.0062504644 -0.009899712 0.12792265 -0.2248434 -0.27451012 0.029632367 0.15844029 -0.28058055 0.22086418 0.024197338 0.23708123 0.017341862 0.17215376 0.33662614 0.20728454 0.26997435 0.02043579 -0.033577222 0.33494157 -0.100896254 0.1674721 -0.043503415 -0.07056519 0.12536773 -0.23773067 -0.12207839 -0.05564485 0.16240788 -0.14388148 -0.011525039 0.25625646 0.10893751 0.103799276 0.27263132 0.03581968 -0.17837356 0.101324394 -0.002811825 -0.2130278 -0.12715103 -0.13838962 0.06869028 -0.042615738 0.11456055 0.0674201 -0.14907143 -0.025654407 0.07366205 -0.3176722 -0.26380396 -0.18502894 -0.16157895 0.0193122 -0.101398535 0.072003156 -0.2185779 0.05053002 0.16720371 -0.24178533 0.20810626 0.5238856 -0.045273244 0.307199 -0.12764888 -0.30702347 0.024687683 0.32493925 -0.46966264 0.063636 -0.29706252 -0.059045773 0.36554417 -0.19271661 -0.044103086 -0.11640004 -0.04557725 -0.27251598 -0.112328246 -0.1380593 0.061883513 0.097504385 0.18254302 -0.14404671 0.094074726 -0.26823545 -0.07009285 -0.37179527 0.10788306 0.011050996 0.06307647 -0.044714585 0.10275938 -0.12158672 -0.19828817 -0.049553063 -0.004718996 0.15428104 -0.005274186 -0.17709258 -0.02110324 0.21026742 -0.13254148 -0.07409581 -0.16655329 -0.017047942
29 0.27932364 -0.07865803 0.08243741 -0.124318264 0.01851461 -0.16646206 0.45832306 -0.20945273 0.36556092 -0.08719357 -0.058425266 -0.17878628 0.35532504 -0.4182076 0.5513303 0.1582737 0.29312438 -0.07325448 0.18872495 -0.183822 -0.13000007 0.4197863 -0.47290796 0.055278827 -0.18118554 -0.20429622 0.015813053 -0.07758088 0.12800583 0.13234626 -0.037684407 -0.07637852 0.046339512 0.04151231 -0.100544505 0.31804067 0.1544267 0.07086145 0.22727862 -0.11402831 0.18163426 0.11947866 -0.09362877 0.13011213 -0.029578594 0.014770528 0.020015506 -0.05684719 -0.045822132 0.028799985 -0.11967924 -0.0903394 0.07925422 -0.09564352 0.09004587 -0.10507522 -0.27432278 0.49698278 -0.25250167 -0.17464842 -0.07675637 0.072663374 -0.023496866 0.044690687 0.29705524 -0.24545047 -0.28268728 -0.23053353 -0.064056545 -0.32784486 0.061296314 -0.116498895 -0.16691332 0.24419859 -0.062085733 -0.05564419 -0.070302345 -0.111688316 -0.09843032 0.072836936 0.2033879 0.06376385 -0.07692495 0.117442235 0.058602396 0.21267012 -0.037055153 -0.33384764 0.18875726 0.13569193 -0.36489862 0.1747821 -0.07924073 0.22776094 0.0010372563 0.17531434 0.012338492 0.14313787 0.14367369 -0.18026257 0.21175426 -0.27074 0.1186582 -0.18667728 -0.11822571 -0.06514839 -0.06478236 0.18908817 0.17236742 0.17041759 0.015937904 0.17898498 0.049667228 0.21505044 -0.18141471 -0.023978557 -0.1922856 -0.24462244 -0.12823354 0.2930555 0.1325508 -0.16609591 -0.053484417 -0.025789436 0.122694984 -0.12785457 0.2799995 0.05166876
56 0.24948813 0.012256187 0.019559024 -0.029273456 -0.016754702 -0.099201456 0.50652385 -0.11200274 0.32138965 -0.02601303 -0.06235375 -0.2636635 0.35683578 -0.35706183 0.59776694 0.07089 0.28446946 -0.04655047 0.1686763 -0.22950418 -0.1454652 0.5232488 -0.59370196 0.07597597 -0.13000198 -0.26766372 0.097840786 -0.06938514 0.24278246 0.1506349 -0.0016729533 -0.02336784 0.06736756 -0.052019123 -0.22443467 0.3050411 0.13323724 0.08990164 0.15683647 -0.12797073 0.21153948 0.12533778 -0.14781058 0.11576323 -0.047436662 0.01699676 0.049263448 -0.1299325 -0.00024085294 0.04097278 -0.037561078 -0.04797554 0.10307461 -0.114894934 -0.0079428125 -0.0011955564 -0.18764056 0.47044966 -0.22766086 -0.21419552 -0.0007533262 -0.009521248 -0.08769952 0.020913446 0.3773254 -0.31625596 -0.27771184 -0.26086253 -0.08198515 -0.3340228 0.10125751 -0.12428976 -0.27359506 0.22149931 -0.036096588 -0.064872324 -0.03684193 -0.12915109 0.023775786 0.14530006 0.21712056 -0.044719335 -0.08715333 0.11959868 0.01584229 0.25954506 -0.037939634 -0.36345407 0.21765515 0.12639137 -0.30056682 0.24662182 -0.059531223 0.20491463 0.0038171443 0.17014651 -0.044298116 0.025251241 0.07996595 -0.14229842 0.07926703 -0.17027429 0.119592585 -0.19052133 -0.07524421 -0.039104067 -0.059057288 0.12597083 0.16598016 0.173909 0.083020225 0.13801122 -0.021710375 0.22237165 -0.13010667 0.008664408 -0.17236361 -0.13462481 -0.13088946 0.21615964 0.15796122 -0.10579564 -0.013624881 -0.07652578 0.07724046 -0.14629108 0.28787494 -0.03207993
11 0.20336196 0.25269955 -0.034740485 0.009067592 0.26405117 0.06440568 0.082722805 0.027361086 -0.2606666 0.010868055 -0.10398495 -0.2031397 -0.22406478 -0.15420611 0.12235974 -0.034906708 0.081339166 0.088805445 0.00058393937 0.124036044 -0.042428132 0.19216046 0.06827732 0.12175628 -0.28319365 -0.36781952 0.05736777 0.23960385 0.15873192 -0.12121963 0.099482395 0.058419917 0.024001526 0.043028016 -0.3723234 -0.053023666 0.09591114 0.13225155 0.08681578 0.0016083656 0.13723125 -0.09143865 0.08302895 -0.11906064 0.061591867 0.056326807 0.12233676 -0.010304602 0.060632423 0.06914299 0.06593103 -0.031036759 0.02977167 -0.008710962 -0.09084908 0.19666173 0.06422189 -0.009630393 -0.07218963 0.006486546 -0.0038789078 0.051017594 -0.0115173375 -0.032709744 0.10354677 -0.036109094 -0.013036149 -0.09974172 0.0215279 -0.19945014 0.27798253 -0.025506191 -0.23418634 -0.10109449 0.026152672 -0.053676937 -0.0011875486 -0.1660112 0.033306897 0.4484845 0.1288628 0.037916414 -0.04472014 -0.016522696 -0.010029122 0.11996638 0.03763151 -0.08790695 0.2941641 0.1871059 -0.23354135 -0.44382977 0.15738589 0.1351776 0.046149008 0.18215583 0.05117195 0.073405 -0.14370753 -0.052273147 -0.112174876 -0.022902327 -0.13526241 0.020580143 -0.13577753 0.03468577 0.17444868 0.06723663 -0.10092185 0.11142955 -0.012887473 -0.033800665 0.20388162 0.08306743 -0.11550869 -0.3643856 0.1887387 -0.025533544 0.11844229 -0.019428141 -0.10972431 -0.15903325 -0.107071735 0.0697544 0.1381064 -0.01338849 -0.08918783 0.022544933
63 0.2145924 0.27372554 -0.02645063 0.047455918 0.27048254 0.017102307 0.12032714 0.04532736 -0.2741981 -0.039675567 -0.062958516 -0.20542122 -0.1854141 -0.16296211 0.26286933 -0.061779577 0.017310461 0.04417327 -0.07799313 0.098895 0.0014564941 0.24047418 0.11741063 0.22581789 -0.31729814 -0.28591052 0.063270666 0.24774446 0.18416151 -0.17680788 0.016641883 0.068288855 0.005756454 -0.060179412 -0.3007914 -0.06819534 0.086287275 0.17505087 0.041892413 -0.009341184 0.19576885 -0.005917399 0.053723883 -0.0908702 0.030580055 0.024097538 0.14104241 -0.026202004 0.12547076 -0.008175188 0.08954202 -0.032962702 0.079342276 -0.006127774 -0.03675755 0.19627419 0.13176987 0.028336316 -0.106216826 0.0007204043 0.025450312 0.043918613 -0.04075025 -0.09554273 0.066749625 -0.090349 0.010180391 -0.05502573 -0.012200506 -0.21342935 0.26655057 -0.058203302 -0.23196645 -0.14544415 -0.042464912 0.02851332 0.023392104 -0.16508396 -0.0095504 0.531555 0.09138869 -0.0069779395 -0.024433672 -0.070462346 -0.0028430424 0.1028746 0.06281468 -0.05097478 0.32482797 0.18879159 -0.23759563 -0.45740503 0.20302609 0.12049196 0.04568045 0.13289484 0.081134796 0.13217574 -0.11191061 -0.028523814 -0.14612035 -0.010985425 -0.15111244 0.10829807 -0.15865777 0.0073587783 0.23598495 0.047752917 -0.17155457 0.13351475 -0.01413876 -0.06641872 0.25279164 0.06074831 -0.051427547 -0.4097509 0.22960362 0.0067954734 0.19366936 -0.0396329 -0.21161117 -0.22543447 -0.17511939 0.04269286 0.1305517 -0.06356721 -0.16788964 -0.025560547
65 0.18299015 0.019584754 0.021278538 -0.08536903 0.029826129 -0.05836854 0.5110674 -0.1688738 0.3877405 -0.07694865 -0.116183534 -0.18057632 0.44670168 -0.4542348 0.62491095 0.1286296 0.292587 -0.047970362 0.14118092 -0.12412995 -0.11697845 0.4643003 -0.5032948 0.08173227 -0.15755817 -0.22142005 0.083985426 -0.051397342 0.26850477 0.1167717 -0.023832386 0.0063795364 0.06956389 0.037999503 -0.2864772 0.30973333 0.14163622 0.08587753 0.18565823 -0.10889853 0.23373783 0.14554758 -0.09490363 0.18763863 -0.004285106 0.03669067 0.10454128 -0.16802417 -0.0011239357 0.029967042 -0.032487754 -0.051294453 0.13178541 -0.027597 -0.030873425 0.032638613 -0.24982515 0.5053097 -0.3105664 -0.16336145 -0.07631879 0.047404606 -0.01082752 0.091599025 0.31968272 -0.24756105 -0.28410813 -0.31689885 -0.080033265 -0.3210117 0.17607585 -0.1037918 -0.26892015 0.29111668 0.0151056545 -0.01853573 -0.08849932 -0.19020444 -0.03132117 0.24812116 0.121690705 -0.016930731 -0.082278885 0.063837 0.11934706 0.26397198 -0.12072006 -0.28261712 0.18574262 0.07930612 -0.34733686 0.2139177 0.0420834 0.20199402 -0.023930779 0.2525941 0.009579323 0.06500927 0.11937571 -0.1295614 0.14221083 -0.2307466 0.18646589 -0.2359033 -0.019263675 -0.055641025 -0.07974666 0.05899169 0.2787933 0.16201547 0.11187159 0.22708735 0.0028708514 0.20897576 -0.12615679 0.110288 -0.22488888 -0.25165394 -0.13809317 0.31406254 0.20442846 -0.14272697 -0.018843008 -0.008942964 0.047550447 -0.2041096 0.28880134 -0.05914878
31 0.22208408 -0.04918362 0.052972037 -0.0520127 -0.045208998 -0.14352341 0.5006571 -0.18783988 0.39210907 0.019924952 -0.10344774 -0.20871693 0.37888342 -0.27956522 0.48032305 0.11399747 0.20672132 -0.06755231 0.12600933 -0.2060218 -0.099613376 0.3694187 -0.60003847 0.16793014 -0.114752576 -0.13575548 0.07289792 -0.120621674 0.18610805 0.1576866 -0.08814349 -0.017955001 0.07277644 -0.009097333 -0.15890771 0.31921098 0.114863 0.07979933 0.20213005 -0.10490657 0.15881824 0.055615738 -0.1728675 0.08629612 -0.004887985 0.056627154 0.010722778 -0.09833797 -0.07139225 -0.005428039 -0.12727751 -0.09734794 0.1118229 -0.09909812 0.056719556 -0.001835148 -0.19459605 0.44138992 -0.24599865 -0.28432882 0.038723953 -0.018273497 -0.041416228 0.08471011 0.473334 -0.2775836 -0.25539497 -0.24722582 -0.03907347 -0.3304695 0.061232835 -0.092638105 -0.2815528 0.26092157 -0.12059634 -0.040496197 -0.10382884 -0.1261463 -0.03242397 0.1878091 0.2069721 -0.015867528 -0.11513846 0.10903144 0.08124418 0.22761418 -0.06474478 -0.3795583 0.28009075 0.16869527 -0.28773955 0.18163578 -0.13172947 0.24138398 0.041145645 0.16451362 -0.095247604 0.09478949 0.14652486 -0.15003029 0.15330619 -0.23728405 0.07776511 -0.22041315 -0.19074477 -0.03563466 -0.0412559 0.110045336 0.1860842 0.16564335 0.08502021 0.08996305 0.034278765 0.27482605 -0.23061287 0.058965527 -0.15573603 -0.11019362 -0.11190386 0.28080866 0.13083695 -0.16335982 -0.09357452 0.03729071 0.012337767 -0.1857728 0.31889376 -0.07194643
53 0.14966498 0.20621748 0.010066886 -0.008539596 0.21005018 0.034107596 0.056935076 0.02163708 -0.22230127 -0.009253117 -0.048755895 -0.19741058 -0.22767918 -0.07556358 0.14480996 -0.021300951 -0.022072587 0.04448468 -0.076239206 0.091165915 -0.024766961 0.23122105 -0.00025350042 0.13470776 -0.27447146 -0.34004852 0.090568535 0.29394975 0.13938081 -0.14107911 0.08239627 0.011247062 -0.007646532 -0.047500525 -0.2777902 -0.14207083 0.028784148 0.1630276 0.06109331 0.052603617 0.116685234 -0.07253101 0.067985296 -0.11210689 0.031873934 0.049840584 0.1941696 -0.012091225 0.07552229 -0.053100187 -0.006270896 -0.013953918 0.06768961 -0.04725016 -0.03161192 0.2501989 0.13474703 -0.07008842 -0.05899393 -0.012160526 0.089169726 0.09298521 -0.03402197 -0.0013802042 0.097311735 -0.0065395082 -0.011188848 -0.080158345 0.016053477 -0.1972615 0.23261501 -0.032872118 -0.30558252 -0.12676518 -0.029483892 -0.017575545 -0.021504944 -0.106001675 -0.04232753 0.58208907 0.10164645 0.030439159 -0.0009291001 -0.04993679 0.041015435 0.16019912 0.009245761 -0.07875932 0.3638735 0.22082332 -0.2696803 -0.5204756 0.15647948 0.14467375 0.07047937 0.14016737 0.120732576 0.15976125 -0.14614286 -0.034403265 -0.1034981 -0.010473616 -0.1837517 0.04843991 -0.19472453 0.057127893 0.19362886 -0.0018422748 -0.13849734 0.12226916 0.019879991 -0.037783664 0.24910606 0.121846 -0.05844921 -0.4218288 0.21577387 -0.02506654 0.15997064 -0.059861027 -0.1717655 -0.15811028 -0.20564336 0.105600245 0.070428595 -0.054344635 -0.13003385 -0.099852785
5 0.16188097 0.27748466 -0.07834241 -0.08419786 0.24886973 0.097463466 0.09376885 0.0266087 -0.22259448 -0.04527191 0.05713996 -0.15489973 -0.17945503 -0.16036676 0.17883536 -0.016926732 0.057046995 0.058848586 0.000103520106 -0.0419619 -0.080687515 0.2730795 -0.035278838 0.056253742 -0.33219945 -0.3573067 0.15352012 0.2506707 0.09649023 -0.13512234 0.076445915 -0.054811522 -0.030512178 -0.09252495 -0.21918383 -0.11352841 -0.0038679482 0.15613192 0.007675556 0.0021490229 0.10280304 -0.06750515 0.017447716 -0.11927426 0.0023572207 0.016159745 0.17140159 -0.036249824 0.17920688 0.016868606 -0.09241423 0.09958608 0.0020637622 -0.0389326 -0.09000367 0.13509306 0.075729765 -0.08995854 0.051696 0.0088638365 0.08591933 0.1062613 0.014853654 -0.059491877 0.03538278 0.058949485 -0.00037217137 0.00504245 0.009779809 -0.22976643 0.21024041 -0.04571346 -0.23641975 -0.18192525 0.01528555 -0.07966769 0.009013131 -0.100917734 -0.09044805 0.5350972 0.13608916 -0.052295133 0.027009381 0.04341726 -0.05884002 0.115410365 0.05664968 -0.05723541 0.18180218 0.18517806 -0.20228456 -0.41732472 0.14915997 0.0756603 0.027411493 0.067675814 0.03947135 0.056711752 -0.12264014 -0.06547865 -0.16717689 -0.040487748 -0.11526377 0.080254965 -0.04476865 0.035586003 0.118875965 0.04623603 -0.110170595 -0.02843065 2.337895e-05 0.004439499 0.26065424 0.034452517 0.04733709 -0.41427192 0.11768746 -0.03222817 0.13640256 -0.031911924 -0.15062436 -0.17852144 -0.08845857 0.059277456 0.08769394 -0.022209477 -0.13978375 0.035590958
58 0.20469822 -0.05087237 0.0327256 -0.12029078 0.027127337 -0.12626879 0.40712354 -0.18414176 0.32900098 -0.07711304 -0.091173604 -0.121360414 0.4087848 -0.32339975 0.5146441 0.12911469 0.26976436 -0.0054066656 0.07764373 -0.15742607 -0.13486303 0.4387503 -0.41705048 0.0916602 -0.18912059 -0.17563969 0.12624915 -0.044125065 0.15761906 0.049491674 -0.017015798 -0.092134036 0.053618144 0.00047770666 -0.15224946 0.2562892 0.12099612 0.09901466 0.19357298 -0.13964231 0.13501489 0.086318366 -0.107715756 0.10173741 -0.028050527 0.019617354 0.06925082 -0.09859215 0.017307062 0.028383086 -0.13186641 -0.08193384 0.14638795 0.046693034 0.08464536 -0.010946187 -0.23050603 0.48262668 -0.2696697 -0.10518497 -0.033231776 0.06666588 0.0057888906 -0.033141058 0.3621845 -0.24598104 -0.24616946 -0.23604818 -0.114849046 -0.2992248 0.0806337 -0.09604911 -0.17173587 0.31580162 -0.05365764 -0.017875673 -0.053270776 -0.09727323 -0.06738023 0.13346857 0.09058257 -0.06845656 -0.12246398 0.113763414 0.11008249 0.23590438 -0.056666676 -0.30387628 0.11339793 0.09150469 -0.2809551 0.1747618 0.0012109327 0.15753354 0.008396856 0.17049299 -0.10808308 0.09486663 0.098081425 -0.142992 0.08545801 -0.31687516 0.13345788 -0.18802011 -0.11780653 -0.07893004 -0.10739351 0.17160355 0.18925226 0.12166574 0.0764022 0.18242666 0.0928243 0.25010154 -0.21877345 -0.038758613 -0.27268517 -0.23013219 -0.19352235 0.30449662 0.10951364 -0.2299388 -0.04809718 0.0024145436 0.055403013 -0.25715193 0.31828588 -0.0068758787
18 0.17160489 0.08753025 0.019172003 -0.09414122 0.29335698 -0.009993297 0.18477745 -0.20287053 0.07406768 -0.13596945 -0.033133447 -0.08653573 0.085847735 -0.26490498 0.1567406 0.16431867 -0.046083834 0.20718592 -0.08278111 0.06508308 0.007040822 0.31748068 0.13011694 0.0691049 -0.18879244 -0.27283564 0.15380982 0.034943897 0.18908915 0.1583747 0.018603105 0.091229014 0.124920785 0.07165005 -0.24340045 -0.21454553 -0.19207987 0.14821896 -0.19082446 0.078453414 0.024499763 -0.14732245 -0.014674365 -0.0592511 0.009728847 0.09295374 0.17680496 -0.15938073 0.07369003 0.058326732 -0.021475537 0.09993144 -0.13985786 0.07183089 -0.31732824 0.21048768 0.2024735 0.15863194 -0.19453098 -0.20095624 -0.09450134 0.014869244 0.16299313 -0.25029087 0.10720047 -0.083181664 0.024832567 -0.104024865 0.11293663 0.13354543 0.16245013 0.006477019 -0.20742978 -0.05258173 -0.09621093 -0.030590842 -0.06959652 0.03464469 -0.18474528 0.31528425 0.24223833 0.055483248 -0.013693254 0.07092456 0.08623006 0.05553687 -0.1550978 -0.15852912 0.05738249 0.123732 -0.16351467 -0.23729877 -0.049403735 0.005443201 0.04329949 -0.021054259 0.12201559 0.10209292 -0.014735381 -0.17100279 0.029539537 -0.085474536 -0.19371894 0.06526662 -0.1797519 0.011226145 0.21330874 -0.05400632 -0.18838747 -0.010105266 -0.04645987 -0.01005327 0.08749587 0.025380163 -0.0036021064 -0.22291487 0.10128761 -0.09249801 0.012590937 0.028923124 -0.19051291 -0.13100779 -0.06477321 0.19824578 0.08449571 -0.012738741 -0.24849698 -0.013387207
40 0.17785896 0.1632941 -0.031988844 -0.1337955 0.27711344 0.09013086 0.1968546 -0.19980048 0.017045086 -0.13595909 -0.04314532 -0.10476796 0.01252349 -0.25582236 0.13254285 0.18304932 -0.070244595 0.1894289 -0.03742714 0.055026088 -0.03492327 0.32297885 0.017516717 0.007549611 -0.2713676 -0.36010438 0.15797241 0.14951769 0.13228685 0.10182109 0.048329916 0.015760995 0.09105171 0.041661307 -0.22317928 -0.22519128 -0.21703981 0.14405073 -0.14359803 0.08124658 0.019654201 -0.18630074 -0.011964356 -0.10317 0.08228137 0.08913221 0.19288927 -0.14013678 0.04181777 0.055907425 -0.058256384 0.08437614 -0.17294052 0.019429818 -0.28884563 0.1679333 0.19145873 0.070690736 -0.1408508 -0.23310259 -0.061776984 0.05257933 0.15761505 -0.1606043 0.036214635 0.001849382 -0.03424366 -0.04318843 0.102421485 0.058159605 0.1862087 -0.019701546 -0.20680957 -0.07502245 -0.051984686 -0.045964267 -0.11322192 0.03169016 -0.19978873 0.3592933 0.24244048 0.08142508 0.04194816 0.07361968 0.06184871 0.055808295 -0.15023617 -0.13257745 0.10115654 0.19448388 -0.23733632 -0.3596735 -0.07808936 0.035264242 0.034828078 0.012119622 0.20401771 0.15604427 -0.056561314 -0.17316948 0.10563598 -0.0675481 -0.23676795 0.043469157 -0.1865586 0.046704955 0.22172835 -0.050284777 -0.21691301 -0.04988107 -0.0354411 0.02909252 0.16564673 0.04222061 0.066023834 -0.31260934 0.1654639 -0.12708148 0.106306784 0.0019308426 -0.17005216 -0.096851274 -0.12954855 0.2671344 0.11950416 0.02535407 -0.25751033 0.01541351
22 0.22221014 0.20069805 -0.00023993885 -0.14635207 0.4616222 0.08482442 0.24929026 -0.22696951 0.06510836 -0.16710174 -0.034053843 -0.10011905 0.044766728 -0.28898874 0.13247314 0.12632146 -0.06667855 0.18147394 -0.064240865 0.12748793 0.049333796 0.3502127 0.17243329 -0.007374603 -0.22907995 -0.27506837 0.06487016 0.16576637 0.16895445 0.05013347 -0.01702984 0.0884545 0.12312176 0.11073947 -0.2592415 -0.1573357 -0.116729714 0.1212268 -0.13796763 0.08455644 0.12170966 -0.1172331 -0.021141136 -0.13190454 0.095739044 0.052047554 0.18116742 -0.2134456 -0.0049489457 0.13684896 0.091668956 -0.019430459 -0.072005 0.08258769 -0.3422948 0.22634265 0.27877012 0.10729594 -0.2537745 -0.1382633 -0.16669826 0.006946264 0.21871948 -0.13834111 -0.013177954 0.011920661 -0.010333206 -0.074037656 0.07726803 0.12922181 0.17974438 0.007412277 -0.15056446 -0.06426759 -0.032288164 0.005202992 -0.07925418 -0.04858774 -0.2145962 0.3161046 0.15768099 0.10277303 0.02465516 -0.0014914 0.10461601 0.03829503 -0.111534074 -0.060578 0.124195725 0.114085466 -0.18048836 -0.43174547 0.022438971 0.007974503 0.018778902 0.054450862 0.20606284 0.10531779 0.011918441 -0.13816018 0.12598859 -0.04482934 -0.13984334 0.07998767 -0.16091527 -0.020520564 0.24807319 -0.053494 -0.16281192 0.046169613 -0.07536436 0.03742007 0.11691345 -0.0070662964 0.0054829116 -0.20925975 0.16576536 -0.13413237 0.041527834 0.043571323 -0.15802228 -0.12197607 -0.09746495 0.18643221 0.15438189 0.011356743 -0.27858093 0.033870827
10 0.22794926 0.04535506 0.076429434 -0.16282047 0.03977855 -0.09652706 0.51898015 -0.1868837 0.39110136 -0.041841056 0.05928724 -0.12121466 0.37246564 -0.36699545 0.460217 0.09233817 0.22302857 -0.12031167 0.14988305 -0.17960986 -0.12222067 0.37591475 -0.564837 0.10175847 -0.21441029 -0.1464945 0.07909789 -0.090389214 0.17269269 0.12696372 -0.0677433 -0.0010874331 0.072034724 0.036979258 -0.09304853 0.28139535 0.15780108 0.09039416 0.15029302 -0.08068361 0.15368155 0.10753463 -0.104937166 0.1404674 0.049516004 -0.0035903389 -0.026777364 -0.10519449 -0.04508716 -0.015949352 -0.06288016 -0.023572167 0.052819047 -0.092703916 0.036467668 -0.046732314 -0.17342727 0.33314314 -0.19784895 -0.22774032 -0.08102336 -0.0115916375 -0.041300178 0.063137025 0.2672365 -0.22505493 -0.316985 -0.23837693 -0.09680282 -0.26703238 0.09173387 -0.073078 -0.23590125 0.2546253 0.006648505 -0.01634733 -0.0920676 -0.22992265 -0.038248006 0.19665907 0.16227198 0.019402446 -0.051286004 0.076374836 0.10805487 0.19167663 -0.012959023 -0.2593846 0.21343307 0.12647933 -0.29652023 0.11130285 0.06535824 0.2335593 -0.00074186124 0.23403388 0.004812421 0.13302754 0.10477952 -0.08907294 0.1702747 -0.2242189 0.121216476 -0.228567 -0.09579157 -0.021473931 -0.033871938 0.14039922 0.21705765 0.18004729 0.11386967 0.21668881 0.076471284 0.19693929 -0.15361199 0.031543877 -0.08095548 -0.17446843 -0.117573015 0.21361141 0.19058438 -0.16710642 -0.07864328 0.032334797 0.07141205 -0.16586588 0.2899645 -0.031821847
50 0.13396485 0.15411584 -0.024045076 0.06652172 0.18088493 0.08245476 0.042520296 0.033064794 -0.23481436 0.005061904 -0.16534494 -0.24466516 -0.16277122 -0.03881698 0.29407945 0.00047183805 0.06522772 -0.09600001 -0.0032859195 0.10271254 0.05227886 0.25295237 0.021222392 0.095878445 -0.4352536 -0.29656643 -0.009078995 0.27253717 0.14746049 -0.17932636 0.000108023094 -0.08001443 -0.056533083 -0.054646365 -0.17958668 -0.13614951 0.055826854 0.11019927 0.09716277 0.018306915 0.09094998 -0.07930539 0.10842347 -0.0958981 0.045007914 0.014806159 0.14713308 0.10697869 0.107279055 0.0044232844 -0.037635162 -0.00027199843 0.06611224 0.0016181765 -0.0971649 0.1216348 0.07847383 0.007148635 0.008269506 0.074149095 0.0030614662 0.089858264 0.036002364 -0.06073741 0.06162283 0.017658168 -0.026942877 0.0014588076 -0.027031131 -0.31616503 0.18585683 -0.02931397 -0.15352212 -0.12607491 0.023742838 -0.047695935 0.01361141 -0.13313226 -0.08907608 0.5442585 0.010006464 -0.060591295 -0.020536419 -0.01152704 -0.025165576 0.11010596 0.10096933 0.006872149 0.32965714 0.19453311 -0.19558401 -0.542261 0.17113398 0.07625361 0.051100593 0.10740754 0.03788921 0.12965012 -0.10622406 -0.0568416 -0.18065983 -0.10914584 -0.10912795 0.05063547 -0.12729394 -0.010294776 0.12635173 0.12545516 -0.1171533 0.06095763 -0.08259333 -0.04620592 0.34554315 0.05500305 -0.033998664 -0.4143336 0.16327666 -0.03619365 0.1758666 0.012556425 -0.18307155 -0.34571126 -0.19007537 0.105733365 0.08596178 -0.100210086 -0.17964055 0.06785228
6 0.13203315 0.2772683 -0.06204063 -0.020130057 0.2300887 0.12504701 0.037694566 0.03868241 -0.2869595 0.0047776094 -0.09485862 -0.19829868 -0.2607183 -0.08352234 0.15611449 -0.01838625 0.10460265 0.027670119 -0.005487004 0.15335388 0.008608303 0.16376309 0.0053954576 0.06211968 -0.3390567 -0.29587343 0.014470974 0.294222 0.09908989 -0.17678513 0.07191841 0.014681919 -0.102331325 -0.024921311 -0.29012612 -0.14081247 0.074788645 0.109439746 0.1175812 0.031566665 0.081957415 -0.11241313 0.14124317 -0.09700947 0.06765225 0.04606512 0.15667194 0.0030276827 0.0762087 0.055375483 0.040106498 -0.042514674 0.12859829 -0.038917378 -0.09628625 0.19570483 0.1235972 -0.08592308 -0.044915278 0.09027265 0.03971844 0.059932705 0.005155545 0.03996577 0.030298807 0.058281336 -0.046129666 -0.045066424 0.047603227 -0.31026572 0.2393413 -0.07926815 -0.24973646 -0.110499255 0.07412472 -0.089564905 -0.030106273 -0.14165847 -0.022007084 0.47680962 0.097922996 -0.01685889 0.005363537 -0.0026961388 -0.030428628 0.15448393 0.077601604 -0.022423962 0.39896053 0.16496763 -0.21423493 -0.5651705 0.17346089 0.0989858 0.062152177 0.14273462 0.0950088 0.049955733 -0.19838968 -0.020666767 -0.18080986 0.010873204 -0.14663216 0.028278772 -0.063506804 0.024891615 0.110107265 0.05690638 -0.038778227 0.033889994 0.05050763 -0.039092865 0.2648349 0.050427247 -0.06394214 -0.36975536 0.18070456 -0.016385062 0.16974166 -0.08387782 -0.112466455 -0.13724485 -0.1407279 0.11874314 0.07616167 -5.8198388e-05 -0.1283864 0.057374015
49 0.14742081 0.22277465 0.04282552 -0.21224318 0.44160292 0.08969705 0.28240892 -0.19559823 0.084514305 -0.03026858 0.0029593878 -0.13919728 0.025250774 -0.24616988 0.10614692 0.12528984 -0.07610185 0.1474543 -0.020491056 0.050753858 -0.084250376 0.35024303 0.06628067 0.008389316 -0.18631285 -0.27283847 0.2687259 0.20202291 0.04553217 0.14043948 0.03844532 -0.025151143 0.08989448 -0.02743395 -0.22790374 -0.20126463 -0.19708383 0.13542241 -0.1284587 0.008549817 0.089010365 -0.17750922 -0.12379332 -0.12023961 0.020068074 0.102028996 0.1746723 -0.15307884 0.051280625 0.10534509 0.0055357595 0.06560509 -0.03023932 0.06629664 -0.3300218 0.20466116 0.28178573 0.13732629 -0.1775191 -0.16307113 -0.05844915 -0.0070476397 0.22783563 -0.189495 0.09774576 -0.043958172 -0.11697933 -0.07432678 0.0864367 0.108187854 0.19555959 -0.018310087 -0.18934457 -0.0543682 -0.059816323 -0.07156695 -0.08733744 -0.01818008 -0.22573195 0.3196322 0.24141587 0.030671673 0.0054066563 0.08899373 0.14132026 0.17371316 -0.0762634 -0.19569711 0.070555516 0.14085741 -0.21903594 -0.3281465 0.024977269 -0.0039613736 -0.007900414 0.032353915 0.16262998 0.10686808 0.0140915355 -0.22264777 0.10895604 -0.1014423 -0.19148132 0.032652855 -0.16140613 0.017879784 0.19980742 -0.028160684 -0.15578927 0.016316155 -0.036299944 0.084962964 0.11388575 0.039039183 0.006279926 -0.26705036 0.06496732 -0.14082071 -0.01700648 0.023685703 -0.128597 -0.090558834 -0.020758446 0.22104087 0.11910959 -0.0037065342 -0.15046957 -0.029070597
7 0.12455505 0.2175292 0.03527577 0.0033231257 0.29703093 0.03239183 0.0021694233 0.08934488 -0.25627694 -0.025333485 -0.00569346 -0.19802673 -0.25738627 -0.10524705 0.14537874 -0.03578902 -0.01940411 0.0630131 -0.10434302 0.13788562 -0.04561031 0.21711004 0.1196607 0.10479539 -0.27205178 -0.28894538 0.08902943 0.31971562 0.052073926 -0.18318452 0.072145924 -0.012010377 -0.029695174 -0.034523707 -0.24892375 -0.086517125 0.11075207 0.1592914 0.11023969 0.017854732 0.1374582 -0.018909717 0.08637441 -0.08756455 -0.0142540075 0.06242431 0.14771035 -0.032942507 0.105822295 0.0146977715 0.09465277 -0.03412045 0.18262023 -0.0137562 -0.05007221 0.23531158 0.2008715 -0.018731982 -0.083410375 0.054676503 0.06886905 0.029967878 -0.009211654 -0.038511492 0.09468749 -0.0089122 -0.09246912 -0.06754368 0.010413828 -0.21737243 0.2759543 -0.0627147 -0.28155473 -0.13159248 0.07389939 -0.08632779 -0.017506232 -0.1721624 -0.072990745 0.5749023 0.08243513 0.001979775 0.0033280738 -0.07180869 0.062782235 0.16702634 0.11527284 -0.0134938285 0.25097647 0.14349237 -0.19610246 -0.43488875 0.26571852 0.0797088 0.024699163 0.122992046 0.03377565 0.10121156 -0.104821205 -0.06551163 -0.121037826 0.00821768 -0.1457914 0.055817455 -0.12713686 0.038022544 0.16448997 0.014629159 -0.102347694 0.12187681 -0.0089013 0.03379361 0.27474207 0.06290892 0.012437676 -0.38268083 0.14115559 -0.0042462205 0.12292283 -0.06647034 -0.10803437 -0.11705902 -0.11945427 0.030969318 0.09425787 -0.038851824 -0.06298908 -0.044364206
55 0.18675192 0.2633694 -0.024702193 -0.07346762 0.21843283 0.11088032 0.075505465 0.06664715 -0.136065 0.025218911 -5.7581638e-06 -0.2202931 -0.17841461 -0.10961143 0.21904615 -0.06191693 0.11477488 0.0028121294 -0.030898696 0.1563944 0.07024826 0.24489197 -0.14656283 0.10346286 -0.42294383 -0.23442295 -0.020439845 0.24577625 0.14274578 -0.09442021 -0.025015196 0.033496495 -0.11452289 -0.05464997 -0.23346399 -0.12715739 0.10930761 0.097759195 0.15610018 0.05646833 0.06663193 -0.030768588 0.049113024 -0.1067691 0.05904236 -0.008748553 0.17756832 -0.0399274 0.037560128 -0.04130878 0.030470302 -0.03483285 0.092534095 -0.032493703 -0.053351883 0.171174 0.13328455 -0.12333339 0.011867805 0.06470188 0.014973312 0.0386587 -0.009177846 0.0666437 0.023909232 0.024519678 -0.023713117 -0.020090556 0.012853861 -0.27004778 0.2267009 -0.014445097 -0.2895021 -0.111957505 0.062034782 -0.08279213 0.049520556 -0.14973636 0.0133589655 0.46320543 0.048419084 -0.05996286 -0.025360128 -0.077167585 -0.029965324 0.108104445 0.054993875 0.008956342 0.39382786 0.09260772 -0.1526145 -0.49506634 0.15857984 0.09963257 0.072951436 0.13726571 0.06708589 0.05189807 -0.100131094 -0.021668911 -0.16809976 -0.0022893744 -0.06648688 0.033163603 -0.122571155 0.023253346 0.13406058 -0.014025302 -0.08387303 0.08750438 -0.00982158 -0.047484 0.19310178 0.03927894 0.0039547943 -0.29594478 0.1424226 -0.028981877 0.12841281 -0.04496716 -0.10411034 -0.21104221 -0.10255191 0.1478768 0.03212352 -0.027782252 -0.19470556 0.02602565
13 0.19236277 0.16088846 0.0008470901 -0.084833756 0.29627568 0.037909225 0.16801693 -0.19568697 -0.026660297 -0.040148243 -0.010845432 -0.12991768 -0.051041596 -0.2439501 0.09923356 0.07487086 0.0332693 0.12132101 -0.0019281731 0.057778608 0.022167046 0.2780538 0.04791564 0.09220952 -0.23876655 -0.21203734 0.07718379 0.10486992 0.19336727 0.08446644 -0.052104868 0.10577889 0.05969286 0.034703765 -0.2160892 -0.19761941 -0.13707677 0.104175545 -0.090458944 0.10939162 0.036031723 -0.08836809 -0.022652227 -0.115949884 0.048449803 0.043678522 0.09731204 -0.13981594 0.053159 0.12455529 0.006272274 0.025328567 -0.075431295 -0.021358648 -0.32238728 0.17704041 0.091343895 0.1275819 -0.1950002 -0.18983968 -0.03761873 0.001569011 0.08950289 -0.11108442 0.0667281 -0.06706202 -0.058340702 -0.06394993 0.11568134 0.038378473 0.21862635 -0.042166963 -0.13539329 -0.097266644 -0.03546106 -0.019348698 -0.10928068 -0.053746384 -0.11606311 0.35097384 0.20319627 0.06043398 -0.03444827 -0.013555799 0.046280228 0.036475293 -0.10165582 -0.09235204 0.1233685 0.115048274 -0.17692669 -0.3773695 0.017363552 0.007463075 0.029610708 0.055459365 0.1609462 0.05616009 0.019399824 -0.1888259 0.080172956 -0.023699941 -0.1475149 0.032980595 -0.1572438 0.0066845845 0.23795526 -0.07409501 -0.091250025 0.03825973 -0.015704669 0.0015494914 0.20520622 -0.014884842 0.04516648 -0.23953897 0.14485152 -0.09891128 0.041556742 0.05073361 -0.12715814 -0.14553629 -0.117486775 0.23308662 0.064380385 0.0071048797 -0.24024095 -0.03051585
62 0.16303045 0.20614576 -0.0058658803 -0.16873959 0.44803917 0.10368248 0.2501902 -0.1807364 0.0406857 -0.08757644 -0.0465488 -0.14447178 0.028643083 -0.21466503 0.16089942 0.112539686 -0.014213171 0.12477402 -0.04356741 0.09298821 -0.0070404485 0.35545745 0.11065471 0.0407399 -0.18631788 -0.26883346 0.141121 0.14212228 0.068816334 0.076286346 0.005593607 0.018949231 0.047663655 -0.0022757805 -0.19393763 -0.12698221 -0.119616866 0.124523304 -0.046204295 -0.0094266115 0.15828353 -0.07458508 -0.090942 -0.1058261 0.0198741 0.06288094 0.1777528 -0.13382012 0.022587901 0.1213584 0.028958747 -0.0034017086 0.019131258 0.07344027 -0.30462095 0.14791295 0.19699572 0.21711312 -0.22140837 -0.08520016 -0.11566581 0.035469867 0.22082485 -0.18264066 0.07489022 -0.053387627 -0.09930639 -0.054495435 0.123806894 0.038502835 0.17456561 -0.013931192 -0.110742986 -0.053655814 -0.075648546 -0.021863993 -0.044500563 -0.025677623 -0.19847502 0.30539736 0.16343959 0.047291227 -0.011202348 0.027764823 0.1206567 0.105893895 -0.059619498 -0.13276085 0.11641701 0.09182481 -0.16041952 -0.44610077 0.035342142 -0.0045025437 -0.053763308 0.028869629 0.14759949 0.13516128 0.0035393485 -0.21847235 0.07783175 -0.12102002 -0.21124832 0.09909515 -0.18195178 -0.029168015 0.21771683 0.043448642 -0.18028855 0.02917762 -0.07693188 -0.0017092794 0.16129404 0.010801768 -0.056479197 -0.33555365 0.041543707 -0.16439681 0.01826575 0.08214668 -0.18494187 -0.13815275 -0.06855518 0.1605618 0.17696199 0.011574514 -0.20702401 0.10152328
54 0.1320661 -0.038797926 0.15047705 -0.13934855 0.32790557 -0.051368106 0.19230635 -0.25052032 0.084344044 -0.13009816 0.0016436784 -0.09068731 0.013537657 -0.33317176 0.090363026 0.2598328 -0.12330656 0.0430193 0.02142271 0.14442323 -0.14621478 0.30674696 0.106661715 -0.16113447 -0.108550705 -0.36742216 0.019977733 0.21820985 -0.04865198 0.031265542 0.118517 -0.07498456 0.055151436 0.1296922 -0.09868725 -0.089248985 -0.053414654 0.08373963 -0.044593994 0.06979173 0.13234875 -0.12205302 -0.018245408 -0.0068420647 0.05597046 0.10737178 0.13542463 -0.15105413 -0.0666444 0.064531215 0.042290162 0.033378083 -0.08480679 -0.06364186 -0.31354535 0.19545782 0.22030917 0.2516133 -0.20352975 -0.103279 -0.22069095 0.038465753 0.16915001 -0.14000365 0.10804485 -0.07579511 -0.114861496 -0.12983522 0.12864053 0.0919242 0.15723665 -0.044020902 -0.23635925 0.0005205338 -0.09273819 -0.10886672 -0.117487825 -0.051390376 -0.18231152 0.3394778 0.24631073 0.1484638 0.077109456 0.07531351 0.14695103 0.18261406 -0.15753031 -0.08013689 0.19987579 0.056695517 -0.18522644 -0.47843978 -0.07290309 0.07674115 -0.015934277 0.04143248 0.2875857 0.2511477 -0.016567955 -0.17555498 0.2934243 -0.050714374 -0.19114946 0.04954165 -0.1511185 0.019081572 0.18621063 -0.019450719 -0.200905 0.08237367 -0.11616561 0.084563084 0.13503033 0.063816816 0.10818801 -0.2640525 0.06677339 -0.18116245 0.11099977 -0.025860751 -0.03437145 -0.02030089 -0.04736908 0.08409096 0.20300151 0.20041531 -0.15809467 0.08141882
20 0.013867814 0.0039748736 0.10070427 -0.09508772 0.22867776 -0.063348085 0.17258354 -0.21257435 0.022413407 -0.0536444 -0.06211232 -0.0628876 -0.029245947 -0.23276982 0.043327104 0.17748617 -0.058570355 0.1503701 -0.07781498 0.079592474 -0.14826933 0.3223401 0.120480716 -0.027592465 -0.0654193 -0.3290622 0.111151874 0.13215567 -0.0042411294 0.045499146 0.066745006 -0.024239726 0.05381722 0.016779624 -0.20615037 -0.1179374 -0.13846476 0.09175186 -0.11399864 0.031677917 0.20474875 -0.20510691 -0.027010782 0.023525136 0.033498418 0.13500567 0.14481674 -0.1231277 -0.016980981 0.06299537 0.09303292 -0.00016554781 -0.10762979 -0.044167466 -0.27000853 0.17134675 0.2242509 0.2589975 -0.24876785 -0.12317607 -0.115183815 -0.004543947 0.18516003 -0.23164599 0.15660758 -0.11847737 -0.107797526 -0.15164678 0.13231228 0.07297484 0.122855835 -0.046658266 -0.1912536 0.015760548 -0.12153018 -0.04347216 -0.14919305 -0.029198553 -0.1560876 0.26998997 0.24780305 0.1674684 0.0657331 0.08312502 0.14907774 0.20775631 -0.12984042 -0.17856805 0.17116563 0.17693728 -0.23083732 -0.3079552 -0.14146651 0.06086259 -0.005570181 0.07756758 0.22704667 0.24349096 -0.057108488 -0.14577103 0.24617736 -0.048357673 -0.24901552 0.05773913 -0.10979333 0.0050719026 0.18943983 -0.006342462 -0.16804793 0.07296773 -0.017010916 0.054724954 0.18983789 0.092745796 -0.035550762 -0.3079193 0.046973642 -0.17034388 0.05459366 0.020957248 -0.09358009 -0.024491802 -0.11099699 0.11824161 0.24535954 0.09421801 -0.09629828 0.07065334
28 0.13697933 -0.17891951 -0.043186877 0.0661509 -0.23657465 -0.0918436 0.22542231 -0.06031835 0.16428624 -0.07639334 -0.2090573 -0.21126242 0.19064152 -0.26595464 0.54852027 0.09259954 0.35056746 -0.072275825 0.072067864 -0.07459047 -0.07517006 0.30470514 -0.37161583 0.06723122 -0.18426763 -0.22022292 -0.0934117 -0.057304304 0.28188634 -0.017313823 0.12928686 -0.04676611 -0.096995704 -0.06641408 -0.3174775 0.2714784 0.12737593 0.07148335 0.24771585 -0.060133286 0.097065754 0.10941867 0.028013518 0.112361416 -0.045566812 0.008072048 0.13698617 -0.04960085 -0.014963312 -0.082925394 -0.088312395 -0.034860462 0.12431153 -0.06836701 0.08971828 -0.029049337 -0.14682938 0.5400509 -0.36277974 -0.2589493 -0.005068471 0.041375518 -0.23029296 0.055292226 0.41201535 -0.26773807 -0.10622171 -0.29175955 -0.09659167 -0.48337266 0.15266001 -0.12990922 -0.2904212 0.18169565 -0.05311321 -0.05699579 -0.04737493 0.056221362 0.08378328 0.25691584 0.06382557 -0.0066351765 -0.06303533 -0.02301179 -0.049599152 0.18242234 -0.19469805 -0.19055414 0.25748602 0.003429874 -0.18593623 0.31455597 -0.2116382 0.19230339 0.07846354 0.097790666 0.114609845 0.093461566 -0.0632658 -0.07835639 -0.0065844995 -0.1334579 -0.018569522 -0.09830207 -0.1206176 -0.05527092 -0.095668 0.0030191392 0.045074224 0.19669734 -0.057272214 0.006984289 0.018588327 0.2670094 -0.03377165 -0.027790403 -0.12860987 -0.09123694 0.13764966 0.12705751 0.059186406 -0.10961523 -0.07325269 -0.106787615 0.021473814 -0.12788157 0.16931887 -0.046529025
45 0.16625002 -0.2774444 0.081426926 0.022054063 -0.25078 -0.16809326 0.2915573 -0.09755912 0.25176054 -0.016813174 -0.013221458 -0.20678958 0.21448496 -0.29240304 0.5084029 0.055426627 0.42794463 -0.089111485 0.24298614 -0.18123221 -0.19682823 0.4326461 -0.48811385 0.10186003 -0.16042562 -0.1989036 0.0060427464 -0.06353621 0.15595476 0.08366921 0.018003475 -0.0057045775 0.023839826 0.031952135 -0.24428369 0.25672176 0.21873912 0.12485985 0.26899752 -0.14508319 0.15080145 0.08668246 -0.0105785 0.18417193 -0.03656428 0.0108654285 0.039665304 -0.020313218 0.0109148845 0.022951236 -0.039244138 -0.044797312 0.1995913 -0.092265725 0.06850766 -0.08067135 -0.15492268 0.51001 -0.23793998 -0.13790002 -0.051606163 0.080617785 -0.07348795 0.047798205 0.3762245 -0.39220306 -0.23443887 -0.24648984 -0.091636285 -0.4391238 0.22002883 -0.13236389 -0.29491162 0.14996974 -0.10887215 -0.10906764 -0.046802375 -0.06954262 0.022987045 0.14039055 0.113091774 -0.0695559 -0.11264489 0.05264631 -0.023494283 0.111794375 0.012476556 -0.19790113 0.19270676 -0.050379 -0.1268082 0.26348618 -0.08007387 0.26225203 -0.02463711 0.15249333 0.045777477 0.057046138 -0.02298196 -0.13926885 0.045677826 -0.25672 0.010001286 -0.038797393 -0.118325815 -0.0836416 -0.031028666 0.16764091 0.052880235 0.15857665 -0.010096621 0.05874988 -0.043713707 0.14314905 -0.08566701 -0.0008343836 -0.07041672 0.04574289 0.10797155 0.15865391 0.051230915 -0.10102856 -0.010503283 -0.12643601 0.041825797 -0.051394925 0.21201898 0.047643
26 0.379352 -0.060291465 0.13910675 0.19437097 -0.019073315 -0.4983061 0.5920946 -0.21798518 0.03358178 -0.18552922 -0.3270616 -0.025682421 0.1867283 -0.27541783 0.6719269 0.3633619 -0.093174145 -0.031872675 0.28509194 -0.36474916 0.20604056 0.5904508 -0.51041293 -0.3759662 0.36390075 -0.7596874 -0.16476959 0.14991869 0.36552098 0.4234959 0.4064331 0.26968825 0.110860564 0.5093482 0.007603469 -0.33650908 0.06736425 0.017169772 0.28430858 0.2058922 -0.060251262 0.33946 0.52094716 0.47368002 -0.37575558 0.016921619 0.1870391 0.43642008 0.013534182 0.21181892 0.030161059 -0.36496508 0.064578064 -0.025194205 0.1596642 0.10976043 -0.1575128 0.052949794 0.080231994 0.6358913 -0.23867238 0.093609616 -0.35380855 0.16786975 -0.29159045 0.0854102 -0.2871236 0.020847326 -0.35641313 0.06273714 -0.16209672 -0.15773037 -0.108841896 -0.10687356 0.26092273 -0.17511928 -0.23966685 -0.2196705 -0.6052974 0.097877555 0.06491095 -0.18023612 -0.4185497 0.543493 -0.14404313 0.61965525 0.15920353 -0.069368124 -0.0740022 0.2632471 -0.340136 -0.47782263 0.9310084 -0.2868433 -0.14115293 -0.48440814 0.7874685 0.16513334 -0.6565735 0.19586389 -0.115494214 0.013793177 -0.056362707 -0.06856284 -0.13147059 -0.11564077 0.07789419 0.5879199 0.3662016 0.12544863 0.589415 -0.12538372 -0.14457546 0.14001709 -0.5071797 -0.25395653 0.5856352 -0.09123446 0.052315123 -0.4717465 -0.4098263 0.3391577 0.004405956 0.22204688 0.020885028 0.1262711 -0.13847207 -0.5953947
57 0.3791348 -0.14308402 0.11117148 0.21889168 -0.1309049 -0.50577897 0.54408187 -0.26150984 -0.05234008 -0.18188655 -0.359242 0.032238975 0.22689131 -0.13182332 0.7105356 0.40914255 -0.10500707 0.05033271 0.17475514 -0.29642385 0.23216756 0.6105518 -0.4906813 -0.39233926 0.32457784 -0.7273246 -0.21036004 0.23121192 0.3669594 0.35252506 0.32001045 0.23660009 0.053518295 0.4326368 0.053180356 -0.4408204 0.07778759 -0.016223533 0.35430902 0.19678076 -0.05340942 0.22524098 0.60500604 0.4993282 -0.2842472 -0.013865809 0.10418484 0.54814214 -0.024805916 0.10890738 0.03672264 -0.45395383 0.1452063 0.028819608 0.25754023 0.13216065 -0.17195374 0.107759066 0.0048156464 0.64493334 -0.27854297 0.17905004 -0.31868684 0.041067127 -0.3344243 0.06162188 -0.41747907 0.041028794 -0.3621217 -0.07651518 -0.17056559 -0.16120777 -0.1427046 -0.069264315 0.28752846 -0.19775867 -0.2141459 -0.05261379 -0.49853066 -0.15300609 0.084411636 -0.25409812 -0.32415465 0.54942346 -0.10820443 0.6051784 0.09163655 -0.07243958 -0.15669258 0.25646228 -0.30589965 -0.19883828 0.6780158 -0.23340131 -0.062715925 -0.43054083 0.75861543 0.19425765 -0.63318443 0.21456549 -0.1651549 -0.0655455 -0.13443132 -0.031393904 -0.12729487 -0.06742448 0.0031147164 0.5869497 0.30540442 0.061069343 0.61606294 -0.11385638 -0.09409768 0.14145777 -0.5311485 -0.40155086 0.5085435 -0.023384152 0.02584076 -0.5619866 -0.4254655 0.28510168 -0.15600234 0.23715807 0.028241385 0.13433255 -0.14761046 -0.4196072
60 0.18751638 -0.059737194 0.015581205 0.016666774 0.27173567 0.04437457 0.13162738 -0.094954975 -0.03244666 -0.18230864 -0.17532423 -0.1911172 0.027636983 -0.19593057 0.28850254 0.24372908 -0.04563428 0.079079084 0.08683317 0.19289847 -0.13776542 0.32963264 0.14193062 -0.21573856 -0.028287232 -0.4474805 0.09411454 0.29161876 0.038484216 0.032551147 0.21518849 -0.036463432 0.0697795 0.17825289 -0.24344088 -0.11720259 -0.041975833 0.08091533 -0.070396475 -0.04858771 0.14951721 -0.15204445 0.043393362 -0.032393146 0.15035287 0.10898391 0.118259184 -0.07118825 -0.060512174 0.18108016 0.06804728 -0.0430684 -0.0017704235 0.008004209 -0.3611426 0.16678381 0.22323418 0.27909994 -0.20149419 -0.10797553 -0.21149893 0.0086003635 0.17675683 -0.17349412 0.09240687 -0.024158726 -0.102827795 -0.13430278 0.07159309 0.04817216 0.09999495 -0.11805441 -0.22920883 0.0027220084 -0.07168994 -0.10267099 -0.08716839 -0.010448274 -0.17362043 0.12895268 0.22027522 0.14493193 0.026598817 0.09566203 0.08660686 0.15095928 -0.11404168 -0.13173495 0.2001149 0.06186343 -0.14398372 -0.5081699 -0.11084343 0.046015043 -0.061921727 0.040346254 0.2900391 0.18915462 -0.070424736 -0.109925754 0.19659331 -0.039886598 -0.21398678 0.06931706 -0.09094489 -0.027559385 0.14468968 0.04190208 -0.25756106 -0.02286032 -0.093957745 0.0013766747 0.07322027 0.0439621 0.06096976 -0.24040304 0.13191286 -0.15972567 0.10842981 -0.078736976 -0.09118312 0.0029246272 -0.02846538 0.098110124 0.21753941 0.15711452 -0.14218158 0.13365048
43 0.12437673 0.03298018 0.013022149 -0.07621973 0.18034689 -0.049953654 0.2416147 -0.24167313 0.0030435128 -0.18024221 -0.070477985 -0.12017201 -0.03008695 -0.27274135 0.15924983 0.1740768 -0.037255745 0.14292361 0.049540993 0.001489398 -0.17864895 0.36027703 0.039602026 -0.0947811 -0.067621656 -0.36742717 0.15411425 0.18006751 0.054537553 0.07042652 0.17105748 -0.02964916 0.046659384 0.058667105 -0.24108297 -0.08356194 -0.13352591 0.16164538 -0.07895981 -0.019335585 0.13218816 -0.08669684 -0.039268713 -0.027956206 0.047281545 0.09526891 0.15472303 -0.16585055 0.03583164 0.099008165 0.05594933 0.017967474 -0.048936468 -0.032408047 -0.29232284 0.1768635 0.2581752 0.32900035 -0.29231364 -0.23319292 -0.121228315 0.077136 0.12944625 -0.19949135 0.0970884 -0.1513559 -0.09171414 -0.12750123 0.09611308 -0.01509475 0.21967603 -0.13307996 -0.3022102 -0.050549682 -0.16776107 -0.06148171 -0.0940486 0.10243917 -0.18879934 0.25042263 0.19214435 0.14132862 0.05767575 0.0024572224 0.05458576 0.020858612 -0.14923319 -0.08708459 0.12074291 0.05432639 -0.16639234 -0.36946726 -0.16997273 0.0521221 -0.016912514 -0.006098552 0.33937153 0.18687367 -0.06558138 -0.18388167 0.17539766 -0.061896868 -0.23622692 0.15189606 -0.123208225 -0.042997025 0.17083468 -0.051748447 -0.29446405 -0.008334372 -0.08092951 0.032589935 0.035909265 0.030016873 0.115098864 -0.24201028 0.14758152 -0.11744556 0.18834054 -0.011673185 -0.15448368 0.021957448 -0.078634076 0.06525533 0.19658555 0.11461914 -0.19021477 0.075634055
8 0.19546986 0.032008994 0.012841608 -0.047249064 0.35696045 0.06285078 0.20910431 -0.15745619 -0.023831006 -0.099202566 -0.14564304 -0.13542399 -0.036148466 -0.27939034 0.16637778 0.15685484 0.0941871 0.1573696 0.08039221 0.11400679 -0.098144755 0.33970952 0.1317403 -0.09890275 -0.045485284 -0.41147617 0.12314119 0.22648393 0.07455127 0.091481395 0.09381685 0.06953207 0.07983155 0.19415274 -0.2927196 -0.052392684 -0.09548815 0.060264487 -0.016901895 0.0039861947 0.18048124 -0.06879437 -0.05894402 -0.07577938 0.033375967 0.10629805 0.12458998 -0.0738033 -0.026263932 0.23544577 0.058893207 -0.036366943 -0.107135616 -0.017496897 -0.38768846 0.108966455 0.16892086 0.22837242 -0.20728807 -0.15762399 -0.11259343 -0.03354635 0.15189987 -0.14832477 0.18735924 -0.058415152 -0.11483588 -0.08987488 0.07133505 0.04030735 0.13695501 -0.1526508 -0.15640505 -0.10903633 -0.090222426 -0.08684356 -0.12700997 -0.05624457 -0.24158105 0.23071116 0.2541588 0.20811714 -0.043841723 0.026747126 0.05113489 0.13451846 -0.10682402 -0.18802126 0.07367329 0.114414155 -0.1553686 -0.36409906 -0.0725903 -0.028307972 -0.093781024 0.015011253 0.23032579 0.09217387 0.049017042 -0.19456486 0.21334781 -0.008557656 -0.23559032 0.064337954 -0.11046376 -0.0055566714 0.19639917 -0.039290134 -0.17553605 0.01991587 -0.17182338 -0.035199337 0.08433138 0.0015182142 0.013059661 -0.17442851 0.06588549 -0.09727797 0.10426554 0.015958128 -0.109031335 -0.004366013 0.013243174 0.16770379 0.17860809 0.1834318 -0.20089668 0.15117808
14 0.09655934 -0.07686821 0.011976313 0.038638514 0.24766098 0.0071104555 0.17490341 -0.17022613 -0.002715336 -0.2018267 -0.28920624 -0.12777627 0.03320767 -0.26772735 0.31011656 0.25160933 0.041313525 0.065891646 0.08827127 0.17519861 -0.11444523 0.35329962 0.14573462 -0.17727639 -0.039303854 -0.4302477 0.031837597 0.26053992 0.09360807 -0.040469278 0.16526447 -0.05341711 0.0032396712 0.1856248 -0.21568717 0.013972194 -0.053198583 0.041600436 -0.011640032 0.009249262 0.19551326 -0.10345217 0.016531745 -0.018767336 0.09728065 0.13065945 0.15541692 -0.15491769 -0.017244007 0.11089627 0.16729672 -0.07025944 -0.04873006 -0.00035227143 -0.3353262 0.18001482 0.28462645 0.32398885 -0.26915923 -0.08182177 -0.20079345 -0.006218328 0.20357032 -0.2069005 0.080083214 -0.054216947 -0.056544464 -0.13503388 0.15993993 -0.016572656 0.12400993 -0.12477689 -0.28119984 -0.051824786 -0.082210205 -0.087962605 -0.1215903 0.028691424 -0.20099176 0.24605867 0.05011979 0.1880771 0.08504229 0.052159645 0.12277275 0.053849608 -0.1437389 -0.029129578 0.18616387 0.036871456 -0.08341212 -0.45816597 -0.15542698 0.024051644 -0.042872977 0.026284622 0.29157117 0.2083908 -0.050228447 -0.08231088 0.21739595 0.014101747 -0.20850873 0.09161779 -0.032983623 -0.05514773 0.091574445 -0.012703537 -0.1796235 -0.011852011 -0.15074074 -0.02574231 0.042983536 0.01738383 -0.0015249151 -0.12396004 0.1266483 -0.1554838 0.15363993 -0.035911396 -0.1353862 0.07793759 -0.046201278 0.09303352 0.22456197 0.23262152 -0.23768122 0.1989214
44 0.39816695 -0.054859333 0.15847789 0.16472356 -0.0033766893 -0.48332563 0.4734426 -0.22725213 5.7370344e-06 -0.07481598 -0.36596432 -0.041493766 0.16514456 -0.18740037 0.6593373 0.36287323 -0.13947707 0.070226945 0.17418025 -0.325627 0.27923283 0.4482613 -0.36001408 -0.28395644 0.3203149 -0.62341046 -0.111898854 0.12419247 0.25477558 0.39739782 0.2926266 0.250314 0.026285028 0.4299906 0.062469926 -0.32200703 0.10556771 0.022352781 0.36003733 0.17234457 -0.008771694 0.32350543 0.4645279 0.497467 -0.4276927 -0.0069512306 0.15695387 0.5339775 0.0050193467 0.057244945 0.014638422 -0.369501 -0.0391585 0.036546953 0.17679195 -0.007842996 -0.21445608 0.12342087 0.06531762 0.56327087 -0.21334605 0.13540605 -0.37307927 0.030702164 -0.27636108 0.02029494 -0.3673494 0.033123787 -0.32886633 0.06941402 -0.21842031 -0.23343158 -0.13818526 -0.16496164 0.2624022 -0.09776161 -0.18402113 -0.11535038 -0.5138537 -0.11758643 0.06037901 -0.18595004 -0.38317624 0.48882666 -0.12586822 0.6023931 0.11260332 -0.1606845 -0.222267 0.2513615 -0.39523414 -0.32705843 0.7107073 -0.30622962 -0.15533493 -0.41040775 0.8328258 0.24487872 -0.6600953 0.10715119 -0.06898247 -0.030608715 -0.04267569 -0.07620751 -0.08225104 -0.10566621 0.11861862 0.4900303 0.28568286 0.0813106 0.54301894 -0.12585272 -0.0103043225 0.10676385 -0.40388095 -0.4469979 0.40483803 -0.21875136 -0.06458042 -0.48536995 -0.37119663 0.2532822 -0.046811365 0.34985322 0.05748654 0.105767444 -0.21895756 -0.4802845
25 0.2710735 0.049083967 0.11773733 0.05902954 0.06934573 -0.4461205 0.638435 -0.2166674 -0.102970585 -0.20022227 -0.29488313 -0.03837878 0.041969337 -0.19342223 0.51933944 0.27606726 -0.16290662 -0.0061814995 0.13408816 -0.27140483 0.27416787 0.6423308 -0.43971834 -0.40068555 0.3656105 -0.79216737 -0.2004503 0.23138463 0.39278343 0.37656665 0.2850892 0.31292403 0.08352113 0.46096924 -0.075865835 -0.359941 0.021386249 -0.032015588 0.27727732 0.1234281 0.03694326 0.28212735 0.44130564 0.4209878 -0.33589455 0.0119624 0.24731217 0.36757237 0.007048149 0.20836522 0.06314987 -0.36754346 0.011122996 0.04019791 0.14611357 0.13135338 -0.06524769 -0.060254857 0.052065406 0.65843046 -0.10262249 0.033006757 -0.27546558 0.040822234 -0.3795435 0.07034005 -0.23390083 0.13599885 -0.41833338 0.013630086 -0.14072266 -0.14474323 -0.09133885 -0.06625277 0.17732759 -0.17985862 -0.16017747 -0.10832925 -0.52722174 -0.063476205 0.09586079 -0.21750031 -0.32525945 0.37228444 -0.08368594 0.6235865 -0.024069095 -0.061572146 -0.082832366 0.2535235 -0.32971367 -0.31975764 0.71039975 -0.30951473 -0.15684627 -0.4821105 0.7091532 0.10868211 -0.61167616 0.20340347 -0.15790482 0.013436005 -0.08514242 -0.024827288 -0.027041618 -0.10794384 0.06511056 0.49632373 0.30741754 -0.013046319 0.5834489 -0.099929206 -0.16831402 0.16098206 -0.48649293 -0.36071947 0.4478749 -0.09785484 0.06159454 -0.44740337 -0.41431284 0.38500634 0.009239642 0.20164296 0.08651871 0.10930804 -0.15090612 -0.39545783
9 0.14973082 -0.042924207 0.052293826 -0.0998395 0.2818467 0.04270994 0.21453558 -0.22624245 0.09777383 -0.14302923 -0.06115355 -0.052947447 0.06746446 -0.28292003 0.07396929 0.23907757 -0.009210823 0.1755561 0.027472682 0.1356512 -0.12423926 0.39119503 0.07988956 -0.15500835 -0.090157814 -0.32006815 -0.024208276 0.05760623 0.0016314911 0.013753178 0.07683915 0.022235274 0.108407445 0.1506829 -0.19378804 -0.09665573 -0.035163686 0.08993326 -0.14944701 0.061215643 0.17118838 -0.12023717 -0.022797102 0.06429772 0.09354703 0.07074794 0.14421028 -0.15643519 -0.102450855 0.125008 0.11215098 -0.06910676 -0.011994999 0.0003691125 -0.28565305 0.23149443 0.26591885 0.24974672 -0.2495158 -0.06414048 -0.31311753 -0.008482688 0.1826637 -0.06205315 0.10997463 -0.014046823 -0.005004093 -0.1465628 0.09604181 0.098025694 0.14320013 -0.0021580835 -0.19910997 0.024704501 -0.063552774 -0.01765211 -0.10759831 -0.096664555 -0.09935322 0.21367098 0.23994382 0.089435086 0.054652933 0.095228106 0.122602284 0.17674264 -0.18256927 -0.074047424 0.15910614 0.033621233 -0.14773768 -0.40415233 -0.0674632 0.1254389 -0.009539641 0.12541948 0.25627452 0.21264906 -0.024748348 -0.16849297 0.2800631 -0.1108899 -0.18415487 0.07998996 -0.12231828 -0.008518426 0.24618085 -0.023941843 -0.2201978 0.029822694 -0.07433639 0.049955346 0.12972753 0.044034507 0.11002467 -0.220376 0.03754088 -0.19662608 0.11259399 0.06306545 0.0029195428 -0.07350089 -0.03642002 0.08346106 0.2581241 0.13988167 -0.10297696 0.12909062
51 -0.061441634 -0.065882504 -0.10088298 0.30392656 -0.17611414 0.28389734 -0.23827635 0.17289096 -0.023307433 0.20537335 0.011859628 -0.59349334 -0.085698 0.20734933 0.2762286 -0.17304148 0.49801883 -0.3129918 0.4159004 -0.06276073 -0.1153249 0.42606086 -0.3099411 -0.05552262 -0.49352828 -0.002614316 -0.13004532 0.24357386 0.38571358 -0.02765247 -0.16040665 -0.32523057 -0.025268551 -0.0019479662 -0.27646786 -0.035288367 0.29798847 0.033760853 0.20236109 -0.16954322 -0.17424408 -0.35725254 0.25191036 -0.32410762 0.3456422 -0.013142859 -0.44310448 -0.27002043 0.029003434 -0.06391696 0.4963003 -0.19754213 0.5498841 0.31848648 -0.27970526 0.3027011 0.11842554 0.33493242 -0.14485104 -0.017253594 0.09894507 -0.0010277675 0.14455545 -0.27178115 -0.05322234 -0.42079914 -0.6774321 -0.05617552 0.12813763 -0.5874742 0.6481059 0.060062747 -0.51545477 0.1544302 0.4317211 -0.5523315 -0.1050487 -0.0013364664 0.038659237 0.081109025 -0.37782523 -0.50470185 0.044357315 0.3589996 0.54626286 0.16143057 0.2555642 -0.017659264 0.20272063 -0.14550655 -0.39041606 -0.28126782 0.17797077 0.34793645 0.5324354 0.1704261 0.30493316 -0.12141295 -0.4398792 -0.38275757 -0.31398848 -0.55501455 0.114692524 -0.1528234 -0.06490144 -0.41905478 -0.11478979 0.30560637 0.37397224 -0.097873524 0.42848694 0.37482446 0.18106388 0.27570087 -0.40369588 -0.08150205 0.74122924 0.24503247 -0.1590069 -0.111652195 -0.11840505 -0.11481265 -0.38218966 0.27800578 -0.3134982 -0.316573 0.20811412 -0.4617186
33 -0.07830523 -0.07429722 -0.027200356 0.3788359 -0.11878019 0.2304375 -0.22787844 0.2339616 -0.11465907 0.27822736 -0.119651146 -0.68586594 0.018278204 0.16778669 0.38817358 -0.25118327 0.48473763 -0.30782807 0.39160618 0.04541691 -0.049850784 0.3989556 -0.23002489 -0.024856614 -0.4291164 -0.13207093 -0.10775064 0.32706183 0.4299533 0.020278644 -0.20108582 -0.2979834 -0.00330036 -0.066795655 -0.3690351 0.03243408 0.35934752 -0.053264257 0.25707677 -0.26372615 -0.028962223 -0.36305198 0.27247325 -0.2267689 0.27267206 0.09869845 -0.4550042 -0.19084601 0.004606674 0.01603315 0.5212183 -0.12203821 0.48623163 0.3912196 -0.36210337 0.20350854 -0.08541028 0.45975152 -0.18347327 0.022304796 0.046003763 -0.020399686 0.15280458 -0.3394319 0.003844588 -0.62328416 -0.8360394 -0.08016409 0.029766282 -0.5483279 0.72308713 -0.009194086 -0.5580668 0.14966987 0.44451982 -0.5745474 -0.10540066 -0.11800595 0.18484803 0.030759849 -0.4585089 -0.44038612 -0.048031066 0.25045514 0.5731926 0.22202435 0.24469776 -0.010023753 0.18266445 -0.28608316 -0.40176463 -0.11412254 0.24890895 0.35568658 0.39153698 0.28947753 0.34289327 -0.17398024 -0.4592587 -0.4253493 -0.40466118 -0.5249225 0.18413073 -0.26327527 -0.05023384 -0.46050072 -0.015972387 0.244606 0.396003 -0.0861679 0.389451 0.39267573 0.24149367 0.284468 -0.47375214 -0.27807277 0.7108323 0.26707736 -0.13118045 -0.15589887 -0.11225458 -0.22098747 -0.3246958 0.37703282 -0.3260998 -0.30863845 -0.00808049 -0.41505235
41 0.042070094 -0.13327004 0.1494984 -0.1320055 0.18840306 -0.06248667 0.08011612 -0.12072272 0.03826218 -0.18052106 -0.057543203 -0.071649946 -0.04243031 -0.2768685 0.16162351 0.27168658 -0.082954645 0.14791101 -0.0467439 0.22356163 -0.14955644 0.27851903 0.14673027 -0.14060783 -0.05274702 -0.4019601 0.034283936 0.29491848 -0.075327024 0.0014795883 0.1396911 -0.10127821 -0.036351282 0.079160064 -0.09583283 -0.1605408 -0.08788103 0.059902348 0.008194557 0.04881894 0.1731424 -0.15393965 0.028635206 0.018462516 0.1301127 0.16366921 0.18459228 -0.098616004 -0.09206427 0.034711115 0.12478733 -0.05828991 -0.012100929 -0.059157368 -0.17339619 0.16908395 0.3302109 0.29952997 -0.2917884 -0.1017297 -0.23486131 -0.007880515 0.20203923 -0.18825726 0.106131665 -0.026375677 -0.14466318 -0.16160804 0.16382925 0.09281458 0.053175293 -0.053597234 -0.237327 0.0446113 -0.09314033 -0.11425565 -0.14195426 0.0017760987 -0.17597431 0.2778643 0.10843496 0.19673209 0.13633719 0.09446634 0.19971636 0.17529817 -0.08371439 -0.06809518 0.23249641 0.11413173 -0.15607151 -0.43881106 -0.13350895 0.09025015 -0.015474343 0.07728078 0.22960454 0.29814264 -0.04943974 -0.10345117 0.29846847 -0.0039588553 -0.26857507 0.07022134 -0.07381747 0.011443732 0.06184136 -0.054685604 -0.2041148 0.010372957 -0.06467185 0.08283741 0.16393769 0.087425046 0.031133238 -0.26656416 0.046757583 -0.15865985 0.16804071 -0.0604002 -0.10425552 0.0023193061 -0.10550252 0.11832071 0.21109498 0.22727418 -0.13388655 0.143451
2 0.023177804 -0.4358045 0.06624322 0.35772082 -0.12779655 -0.0056602163 -0.22822721 0.09283215 -0.2690404 -0.043795504 -0.3060652 -0.2071248 -0.09696804 0.072313495 0.29275963 0.21774158 0.07291098 0.17827578 0.20082775 0.2603431 -0.26363087 0.25803068 0.06415594 -0.26703122 -0.07440292 -0.24352817 0.12511852 0.42653847 0.026666947 -0.31636915 0.27000248 -0.08291418 0.041884203 0.22052471 -0.10734929 -0.12552784 0.043809485 0.04700869 -0.030318066 0.006144456 -0.15329759 -0.14479995 0.14981215 -0.13119787 0.30159563 0.110922515 -0.07410003 0.05143795 0.03550852 0.27055284 0.16799036 -0.13235897 0.50159186 -0.06676352 -0.18369095 0.39342162 0.32689095 0.13233806 -0.1191815 0.023208858 -0.19678219 -0.06010518 0.05474524 0.06136017 0.25499246 0.20902862 -0.06312569 -0.14379062 0.072419435 -0.24313194 0.24435878 -0.24689282 -0.43258396 -0.095149115 0.17458515 -0.16158478 -0.1802371 -0.16288196 -0.09178041 0.51264656 -0.20638706 -0.17075706 0.09303614 0.34404573 0.22284026 -0.024477186 0.31969988 0.12218138 0.2126963 0.07008229 0.13198072 -0.66615677 0.27592525 0.12920946 0.17901492 0.2276484 -0.06069116 0.06070234 -0.16872606 -0.11524153 -0.011189909 -0.14511973 -0.2787179 -0.0514179 0.011938008 0.060340863 -0.052633375 -0.022687623 0.00560042 -0.04781458 0.089941174 0.03670332 0.38901052 0.007357869 -0.03297142 0.0011970438 0.15301669 0.059813358 0.15183586 -0.034106888 -0.005034888 -0.20642318 -0.16560324 0.27067107 -0.09738874 0.040735193 0.07844847 -0.004324947
34 -0.30175215 -0.21777494 0.044988718 0.27598324 -0.2135995 0.33206928 -0.3262789 0.35602477 -0.1701811 0.4457098 0.026408914 -0.6452238 -0.21110691 0.29813397 0.34408545 -0.2148012 0.79684937 -0.36656672 0.46865037 0.09798201 -0.13098952 0.36756864 -0.33069322 -0.09957247 -0.62248665 -0.20990561 -0.089984514 0.4947152 0.3823005 0.061277647 -0.24430324 -0.34264922 -0.12170356 0.021540368 -0.3929261 -0.029539995 0.33525455 -0.026430959 0.43394235 -0.25912464 -0.14658594 -0.50557697 0.29409826 -0.27698368 0.38232425 0.12504046 -0.5235635 -0.08430882 0.042690057 -0.05444602 0.4981049 -0.033925842 0.42040294 0.60187423 -0.31386128 0.10856593 0.07055227 0.25860226 0.046966277 0.21479414 0.06028993 -0.0051455763 0.10531089 -0.4110213 0.14206126 -0.49879402 -0.96156746 -0.026227534 0.018978523 -0.58553547 0.7962239 -0.027401919 -0.6858005 -0.0016065362 0.5971874 -0.74896795 -0.28325874 -0.06467943 -0.126578 0.35972005 -0.5380407 -0.52806747 0.025363637 0.48416615 0.77698433 0.394356 0.20017035 -0.082244635 -0.004022277 -0.11633481 -0.6004379 -0.20800528 0.23162292 0.34219292 0.4912193 0.3089621 0.50399595 -0.08093611 -0.5181191 -0.5881277 -0.41554406 -0.74124724 0.14354998 -0.31272498 0.1021202 -0.42239794 -0.08545409 0.15270954 0.4616517 -0.27183998 0.34146497 0.497914 0.29918683 0.38036057 -0.30976057 -0.15905496 0.6393488 0.23809649 -0.1518205 0.01616604 0.021790592 -0.20743571 -0.3490544 0.5270888 -0.5252941 -0.4293268 0.133778 -0.4649897
42 -0.2733067 -0.2864255 0.007593757 0.34640914 -0.31948158 0.3345646 -0.41639924 0.26305813 -0.042602453 0.41764334 -0.07102826 -0.63559484 -0.1253945 0.21753564 0.21804771 -0.15853891 0.833276 -0.40188786 0.5283824 0.027665608 -0.071951896 0.35527563 -0.30538648 -0.095018335 -0.546283 -0.15982223 -0.11508148 0.3713652 0.31718847 0.02677214 -0.17475031 -0.43189237 -0.13279572 -0.053008594 -0.41814995 -0.050607923 0.3674199 -0.10223116 0.243123 -0.28374875 -0.15906999 -0.59757835 0.31819063 -0.21729836 0.3303975 0.15678807 -0.46233895 -0.087280914 0.06678156 -0.19057338 0.45983794 -0.104727566 0.3747179 0.5745142 -0.3396832 0.15857652 0.06586822 0.32290313 -0.046524666 0.12555778 0.1271804 -0.0720549 0.18507148 -0.38485062 0.07455619 -0.59066975 -0.92174286 -0.14959262 -0.005987255 -0.63139397 0.7378888 -0.08080128 -0.8346269 0.05127074 0.53440624 -0.7925483 -0.20547624 -0.038076013 0.061341666 0.1238423 -0.45200565 -0.52629554 0.09827598 0.453183 0.7619529 0.5110952 0.091913484 -0.124412924 0.0986577 -0.22380793 -0.7235659 -0.10754122 0.08941171 0.4287761 0.5368937 0.35307378 0.73669666 0.02447155 -0.59407717 -0.4740345 -0.32965234 -0.6517274 0.15859774 -0.3050906 -0.00932967 -0.5135594 -0.05822089 0.24166688 0.43834913 -0.3184068 0.39973778 0.49145728 0.30339417 0.37420315 -0.3230466 -0.39935738 0.6524666 0.15168208 -0.24755491 -0.13641918 0.024482716 -0.28874105 -0.28566554 0.5084658 -0.42080554 -0.40351522 0.10345636 -0.49086994
48 0.15356006 -0.084484175 0.10915959 0.10317555 0.054056786 -0.1682079 -0.1913544 0.208286 -0.20833977 -0.15945235 -0.14962494 -0.21426317 -0.22508928 -0.002374426 0.22301462 -0.0051650046 -0.05694689 0.3246931 -0.24207158 0.31718412 0.025062345 0.3080579 0.30285883 0.157514 -0.22906034 -0.33375373 -0.04699608 0.40771574 0.15969706 -0.15253408 -0.061738584 0.06813271 0.0872774 0.14155483 -0.44009373 -0.18493225 0.055787075 0.11964767 0.17243184 0.00932481 0.17898546 -0.06492144 0.16468213 -0.17504732 0.12897186 0.10867767 0.24710803 -0.06893993 -0.041474245 0.17977741 0.19630508 -0.21782893 0.3328533 -0.004748609 -0.018732518 0.22999868 0.2723936 0.03969357 -0.25504157 -0.0837734 0.002893571 -0.030233096 0.0957026 0.008768026 0.102801904 0.067765154 -0.09380196 -0.064522475 0.017840937 -0.26800784 0.19259481 0.039636385 -0.10368241 0.07471631 0.04491093 -0.08208493 -0.0047148746 -0.096742384 -0.12280862 0.34809023 -0.078568116 0.10554792 -0.036594246 -0.0966836 0.1043769 -0.018674314 0.29154506 -0.011005971 0.41949856 0.2604349 -0.14433323 -0.3335268 0.15419595 0.1553138 0.08026954 0.15451674 -0.24357842 0.011123254 -0.018441426 -0.043729544 -0.11557368 -0.055330798 -0.16147636 0.051217847 -0.141509 -0.0419384 0.0073913806 0.036442954 -0.056812305 0.16218682 0.0023297546 0.045640554 0.25963825 0.119601965 -0.27663928 -0.17169638 0.2308466 0.1440586 0.24043137 -0.05259585 -0.32707822 -0.17442091 -0.2351836 0.11560034 0.076736994 -0.071497515 -0.09207659 0.068168044
27 0.065617844 -0.18760176 0.05185668 -0.21154723 -0.06580246 -0.28921974 -0.05652748 -0.022230731 0.088472374 -0.18780494 0.41005284 0.11139866 0.0843092 -0.34581074 0.08030823 0.028386902 0.07123728 0.19972175 -0.19599918 -0.025456771 0.2176694 -0.055676922 0.028060678 -0.020519244 0.03175723 0.12403406 -0.35989228 -0.42317024 0.05011958 0.1384478 -0.28355142 0.26429895 -0.00020892947 0.17127547 0.019608205 0.18324667 0.23132028 0.026475858 0.1312659 -0.01664606 0.03350792 0.32120806 -0.01437978 0.14154819 -0.0083804885 -0.078137964 -0.050281234 -0.12931761 -0.08345832 0.0539795 0.17285375 -0.11287839 0.037986606 0.049905445 0.035711713 -0.042755794 0.09421808 -0.050281696 -0.048045468 0.11759041 0.014390097 -0.24796447 -0.21827607 -0.09469195 0.0159057 0.06735452 -0.032392003 -0.02458483 -0.06629538 -0.060374133 -0.07724553 -0.3550456 -0.27281103 -0.18449582 -0.054268934 -0.110669866 -0.09813978 -0.039151818 -0.16247341 0.112489395 0.09066345 -0.12075724 0.17365034 0.46370038 -0.010385308 0.24979009 0.02174194 -0.22765014 0.13929266 0.24257413 -0.32326588 -0.08591716 -0.09892988 0.021100512 0.2548579 -0.15037148 -0.040917613 -0.122053884 -0.16099018 -0.19333434 -0.2118741 -0.11031842 -0.016847033 0.04974653 0.16883864 -0.23656894 -0.1000878 -0.079692855 0.15700956 -0.31509465 0.25678727 -0.056422748 0.32133198 0.0013596755 -0.1500119 -0.21172415 -0.19431025 -0.08131152 -0.056278095 0.063067436 -0.09038454 -0.26167986 -0.04087638 0.22861953 -0.16731437 0.040903386 -0.10013722 0.15833804
68 0.081110485 -0.13108659 0.08405858 -0.28065285 0.11859221 -0.1552991 0.01907036 -0.0547557 0.10265676 -0.17423165 0.34871253 -0.04492054 -0.07799428 -0.3089172 0.09358657 0.01369176 0.120927416 0.14637788 -0.2306115 -0.0059492947 0.2903754 0.0003671869 -0.039774626 -0.018748984 -0.07539355 0.22364819 -0.31327972 -0.36391336 -0.015968703 0.114613034 -0.3504347 0.20886216 -0.056939457 0.1481263 -0.032110665 0.2120275 0.2842614 0.08744793 0.30435547 -0.0538117 0.014798552 0.2868297 -0.0764426 0.04668356 0.014563283 -0.053185508 0.06330286 -0.1792618 -0.14824244 -0.03521024 0.19853054 -0.13175406 0.1251055 0.20895356 0.08427501 -0.055932455 0.24946071 -0.09493838 -0.04395725 0.10807855 0.06233509 -0.24716437 -0.092461176 -0.034098174 0.040845532 0.15599862 -0.018181061 0.10616655 -0.09052052 -0.15277226 -0.0011052825 -0.3275713 -0.29709065 -0.22134677 -0.027524127 -0.14990966 -0.06414194 0.039428186 -0.19782725 0.09275659 0.018846022 -0.2384347 0.2390891 0.4309036 0.011793166 0.2482939 0.05260341 -0.20567101 0.078191124 0.25841945 -0.3147072 -0.028770776 -0.22904219 -0.10501684 0.28553355 -0.21613261 -0.0749701 -0.1615952 -0.1393941 -0.23997705 -0.20853451 -0.072190136 -0.04592054 0.0933721 0.1911937 -0.1949472 -0.055865202 -0.19582105 0.048854705 -0.3679008 0.1525148 -0.059835397 0.22012836 -0.039783698 -0.05735021 -0.24021223 -0.18224853 -0.0050079604 0.0069175987 0.029885964 -0.10875108 -0.18271515 0.006275269 0.29535076 -0.16595156 0.00082796946 -0.19558847 0.12540656
24 0.10087387 -0.15667202 -0.11140081 -0.100638784 0.09306337 0.021708256 -0.3119692 0.19867419 -0.0106699215 -0.29566702 0.40527728 0.16706724 0.10834947 -0.17617345 0.1454275 0.13627625 0.12556589 0.28275132 -0.21525781 0.12731622 0.22974697 -0.1939188 0.10171629 -0.16326524 -0.011950469 0.30081144 -0.34672314 -0.4655657 -0.057693098 0.046575174 -0.1512558 0.33915338 0.059565492 0.37094375 -0.09713589 0.22013828 0.4099478 0.08931193 0.2488746 -0.097478695 -0.10194322 0.22582991 0.22362684 0.18982008 0.20061986 -0.03648108 -0.23893304 -0.07062702 -0.15061209 0.07239608 0.12411234 -0.046432186 0.36980587 0.17006978 0.16348243 -0.14222987 0.2102037 -0.1227285 -0.06428086 0.063639924 -0.12532228 -0.32746044 -0.29094908 0.042900335 0.055004977 0.37155053 -0.13782476 -0.04447944 -0.17153019 -0.19439553 0.035355493 -0.43141624 -0.459845 -0.18959683 0.14740033 -0.27766466 -0.1557163 -0.15014529 -0.17515354 0.26399106 0.12937671 -0.137194 0.14861205 0.3964129 -0.0060334345 0.02940038 0.19078268 -0.057680875 0.12272915 0.040178545 -0.0059124874 -0.06081597 0.12006575 -0.004718601 0.21360387 -0.22287144 -0.16814436 -0.1018654 -0.35799247 -0.17145868 -0.31158572 -0.07071374 -0.33397758 0.10895771 -0.0019048201 -0.17189844 -0.14356583 -0.0259944 0.04277143 -0.18443298 0.25470993 -0.12081652 0.53619885 -0.049506675 -0.2323371 -0.4532372 -0.1612643 0.08545324 0.08820244 -0.2911031 -0.124903694 -0.23466223 0.11464143 0.3149854 -0.23890224 0.13604546 -0.15650465 0.38976836
35 0.14724687 -0.0062405304 -0.18550114 -0.12396445 0.13837741 0.11688731 -0.20739388 0.13082422 -0.0674457 -0.24823816 0.26674792 0.12203645 0.09478244 -0.19277054 0.18215737 0.0560097 0.16003208 0.35039884 -0.121986 0.100875676 0.311432 -0.17305161 0.1046748 -0.073946126 -0.027319642 0.26781133 -0.3673581 -0.46928674 0.0709236 0.10085778 -0.13896373 0.36672893 0.009514959 0.21637802 -0.16080594 0.15979898 0.24610047 0.060947374 0.119536154 -0.010467003 -0.14826623 0.19690582 0.20709325 0.17710915 0.1011116 -0.0068855793 -0.1108748 -0.1361813 -0.10082372 0.15881072 0.035593987 0.038980566 0.424741 0.03112241 0.011776869 -0.08813575 0.22238421 -0.15950666 -0.06706172 0.051189203 -0.068669744 -0.31774056 -0.24378578 0.14908874 0.0017016025 0.38996127 -0.009268011 -0.036993522 -0.01918083 -0.2888675 -0.008032829 -0.37381154 -0.373234 -0.24770415 0.12521096 -0.28388306 -0.16506517 -0.019259509 -0.19759957 0.2464836 0.14877409 -0.17717493 0.14631145 0.60893744 -0.14337954 0.090269014 0.26776117 -0.19210255 0.29611406 0.11214823 -0.066931106 -0.029513156 0.09698967 0.076928526 0.33654353 -0.26214185 -0.30450347 -0.34193018 -0.3021664 -0.2081458 -0.527839 -0.052622937 -0.2831826 0.13236569 0.0761687 -0.18028669 -0.14718461 -0.012569234 0.11789936 -0.20540036 0.26124802 -0.222669 0.40808296 -0.09646874 -0.38120472 -0.29963183 -0.08183517 0.12388926 0.0810507 -0.25836766 -0.19055851 -0.241564 0.120088816 0.2581011 -0.29656705 0.14282979 -0.21173425 0.40356165
39 0.09243847 -0.4412515 0.029038284 0.30487883 0.06345492 0.10824001 -0.254539 0.017893866 -0.18522413 -0.06477295 -0.32325888 -0.33625197 -0.033583596 0.05254279 0.25511706 0.24515918 0.03766323 0.24659592 0.16468179 0.24817528 -0.22645202 0.4183457 0.046812702 -0.32275116 -0.11460618 -0.27149454 0.14197329 0.367766 0.04767428 -0.197266 0.22076301 -0.11508337 0.1434857 0.27506796 -0.1630039 -0.106635526 0.009574355 0.01239899 -0.0726188 0.005142943 -0.16405761 -0.27058518 0.1356815 -0.20878345 0.2602573 0.17544259 -0.10169562 -0.10243165 -0.03226967 0.3173576 0.16797641 -0.15076476 0.5746068 0.010510461 -0.28172618 0.43393686 0.25865087 0.15709999 -0.085908815 0.040013924 -0.1212647 -0.053711362 0.23250654 0.09472036 0.2111411 0.24881212 -0.1386604 -0.12118641 0.16894276 -0.18886547 0.36065906 -0.13394536 -0.41596353 -0.057204083 0.2999174 -0.27826455 -0.18040016 -0.16954188 -0.07410555 0.47435513 -0.085847914 -0.17129347 0.017197022 0.3287391 0.27170873 -0.0513279 0.32431182 0.12475357 0.14599666 -0.08063931 0.24813904 -0.6289111 0.34293056 0.097278796 0.16525854 0.16643381 -0.21068804 -0.115174375 -0.13168481 -0.16498204 -0.015153556 -0.09589334 -0.23488015 -0.0746031 -0.09925838 0.08518751 0.044008866 0.0029028456 0.04179641 -0.038589813 0.02740199 0.027375361 0.2606498 0.0025629096 -0.18619236 0.039185748 0.19612893 0.16086948 -0.0072719106 -0.047148306 0.0015173386 -0.027128488 -0.06762454 0.2774831 -0.08694337 0.0787864 0.0721804 -0.04062618
4 0.02912945 -0.357135 0.047444493 0.2657511 -0.031709366 -0.016485495 -0.17315668 0.06866183 -0.19229063 -0.056472674 -0.40568128 -0.25393125 -0.07391694 0.03413054 0.35900715 0.19280806 0.077685304 0.23190998 0.06489997 0.19133611 -0.15022819 0.32369867 0.01740277 -0.14628176 -0.10843433 -0.36276385 0.18741031 0.23099606 0.057592068 -0.103715315 0.2060207 -0.026587123 0.0042768554 0.1889939 -0.1858708 0.0034063 -0.000722243 0.06752253 -0.059903562 -0.06772728 0.057006422 -0.1967738 0.0535893 -0.059608717 0.12878853 0.14116968 0.052709337 -0.015809124 0.09451947 0.16027468 0.20936686 -0.12351249 0.30054444 0.0075864615 -0.2485119 0.32399702 0.3254591 0.1796039 -0.0850568 -0.014537645 -0.10586539 -0.0362847 0.22986616 -0.0746716 0.23476423 0.11090041 -0.044347607 -0.17584306 0.15736268 -0.20633951 0.20578898 -0.18563636 -0.4571307 -0.11375529 0.132817 -0.13981332 -0.067382365 -0.13633646 -0.070744835 0.41202867 -0.119356945 -0.023472669 0.053356897 0.15379544 0.20435497 -0.024244439 0.24567184 0.03656622 0.18031394 0.03944571 0.122812554 -0.5806697 0.15441078 0.076051295 0.041771255 0.18636529 -0.13162532 0.051007945 -0.107687004 -0.078809895 -0.077930994 -0.049374115 -0.2336866 0.01577434 0.022313049 0.051367983 0.045564428 -0.0772647 -0.082825206 -0.15388633 -0.03759053 -0.05392774 0.27558595 0.014942376 -0.15019326 -0.12640537 0.11879071 0.021070423 0.092895605 0.022671562 -0.10268402 -0.0884262 -0.1024394 0.3003499 0.06996976 0.06448879 -0.06972779 0.14151637
36 0.17585598 -0.042751316 -0.1395897 -0.11476189 -0.0043896125 0.040640347 -0.2184215 0.1548577 -0.023759596 -0.22823933 0.2868686 0.053861618 0.08009574 -0.17680961 0.25474447 0.05808666 0.23333102 0.21332401 -0.079083115 -0.015112078 0.25819466 -0.02178771 -0.15407632 -0.16333672 -0.15524592 0.22202273 -0.28735855 -0.4780588 0.04423023 0.041977875 -0.071678765 0.27861103 -0.07915945 0.27922836 -0.03348083 0.2800369 0.33375245 0.08171163 0.19625853 -0.05892797 -0.18509518 0.26507345 0.18719845 0.17477351 0.06863538 -0.09732699 -0.124652475 -0.05188335 -0.085761026 -0.026185803 0.069727555 -0.0095715085 0.24787152 0.011172634 0.16206293 -0.1684361 0.16316502 -0.18089972 0.12225627 0.10461261 -0.05447754 -0.23974359 -0.31977606 0.039676826 -0.09632056 0.30000913 -0.0074478597 0.029310768 -0.10228012 -0.27558073 -0.073342875 -0.35759047 -0.37386268 -0.21663111 0.1894983 -0.21821398 0.0045949174 -0.015379495 -0.13627356 0.1350822 0.07499458 -0.25256407 0.13105431 0.5313707 -0.1250532 0.05053203 0.28223258 -0.15356578 0.1776391 0.09410771 -0.069154054 -0.09095428 0.09859255 -0.0010180911 0.33971182 -0.25379747 -0.15027234 -0.1745648 -0.40890685 -0.10370269 -0.48211375 -0.08254777 -0.2240007 0.10555684 0.09081757 -0.14652963 -0.15512268 0.06970978 0.06408419 -0.20024714 0.24742508 -0.20061918 0.30544773 -0.08042334 -0.2930064 -0.20841974 -0.00410998 0.0876644 -0.027557207 -0.29323232 -0.11051968 -0.11849171 0.08440598 0.2781066 -0.21276057 0.097163655 -0.12306689 0.26207343
3 0.036979906 -0.49162135 0.078128345 0.33017537 -0.07642391 0.02356504 -0.30073318 0.0932304 -0.17021586 -0.040909085 -0.27356863 -0.25907928 -0.06433488 0.104454555 0.20024556 0.19850011 0.09544719 0.24298589 0.24326141 0.22546798 -0.24660978 0.38429016 0.056845084 -0.29727888 -0.06218961 -0.2487197 0.09924477 0.40242583 0.08618607 -0.1557563 0.16214786 -0.10949371 0.16670732 0.29284006 -0.1826438 -0.12285951 0.036271036 0.006252339 0.0011348202 0.011346414 -0.17292601 -0.20373937 0.13138261 -0.23743159 0.3501965 0.16128837 -0.20279597 -0.05109054 -0.09574565 0.31909552 0.19070159 -0.16109788 0.5819623 -0.024026936 -0.2006263 0.32786706 0.28918 0.1744866 -0.15929171 -0.091918 -0.1811486 -0.12610139 0.15976565 0.080956794 0.25811294 0.25068307 -0.21672754 -0.14461604 0.11395825 -0.21835755 0.29272023 -0.16528746 -0.3620277 -0.04668203 0.22868116 -0.2722174 -0.22825481 -0.14552578 -0.15400368 0.43578014 -0.18301125 -0.087643474 0.030153457 0.3098105 0.28639933 -0.09611126 0.36105886 0.12726001 0.16235721 0.015324645 0.17666979 -0.5626235 0.29330456 0.13930261 0.19994313 0.15645635 -0.15827943 -0.07687384 -0.070269406 -0.21494134 0.023934716 -0.16119975 -0.26194793 -0.07159527 -0.07701018 -0.0052013984 -0.06257762 -0.026024569 0.06644249 -0.010206348 0.03243502 0.09160959 0.32613355 0.009926862 -0.17790943 0.06934061 0.19090123 0.16810602 0.0802596 -0.04527485 -0.073456995 -0.18016477 -0.12542063 0.32580167 -0.16400334 0.07488794 0.048657164 0.00049611786
30 0.09492197 -0.05671593 -0.07897788 -0.18490727 0.11649375 0.077179685 -0.20729047 0.12848619 -0.027640559 -0.24661526 0.3725246 0.12062521 -0.06336918 -0.16542603 0.040479295 0.03407432 0.15480849 0.2116765 -0.052914206 0.026977513 0.31908876 -0.011148623 -0.034909766 -0.24678989 0.09902901 0.23148546 -0.4124647 -0.30724514 -0.017104233 0.08914883 -0.11572841 0.34709883 -0.021506043 0.19951683 -0.027629176 0.11380154 0.2565125 0.014811427 0.24164467 -0.027441898 -0.17596509 0.34088266 0.122375555 0.06902602 0.1571099 -0.031437147 -0.14102826 -0.029263057 -0.1916006 0.14698184 0.050863095 0.057018165 0.41912004 0.015399892 0.051705454 -0.14028874 0.32642302 -0.18407877 -0.07036342 0.023079267 -0.07468892 -0.3046663 -0.3125272 0.21911132 -0.047334485 0.42151633 -0.084396385 0.08644942 -0.16996206 -0.2551988 -0.0015872493 -0.45768428 -0.32811287 -0.27714232 0.07871389 -0.2384224 -0.18417351 0.03666771 -0.274523 0.22335061 -0.017580947 -0.21162212 0.18587492 0.4814727 -0.0944885 0.06881921 0.23507269 -0.019393839 0.24353392 0.12954034 -0.060689438 -0.18321702 0.08384897 -0.04972906 0.28804985 -0.30401182 0.013505923 -0.24036032 -0.33541757 -0.2584882 -0.3504988 -0.06600229 -0.32994813 0.1273977 0.12538566 -0.23940466 -0.172217 -0.05283153 0.0815053 -0.17828496 0.24301095 -0.14346065 0.34169516 -0.12860583 -0.16576485 -0.28936303 -0.099594526 0.0909169 0.1922631 -0.30943033 -0.16190003 -0.17421506 0.11254893 0.24663126 -0.29014724 0.1873365 -0.28026086 0.2900638
32 0.10373063 -0.102936745 0.07025243 0.1968037 0.037664104 -0.04285453 -0.10120674 0.1926328 -0.22655761 -0.05476263 -0.26349145 -0.2553674 -0.24018203 0.09413915 0.15756153 -0.073355176 -0.037926044 0.23115882 -0.046464104 0.11513174 -0.007584343 0.24921489 0.12143199 0.116492964 -0.115270935 -0.39830074 0.070488945 0.34821293 0.08006666 -0.10344675 -0.04864583 0.024458908 0.13005826 0.12072765 -0.33711588 -0.07186084 0.12511462 0.10400912 0.10895665 -0.06346099 0.35557368 -0.11762306 0.017919885 -0.15764016 0.11764661 0.08147289 0.23061566 0.0032296332 -0.03594924 0.23057926 0.19401345 -0.2637865 0.18043575 0.033372864 -0.03907727 0.20413657 0.28234348 -0.077643104 -0.13678288 0.007889944 0.010973349 -0.013913751 0.24292754 0.04449279 0.1484683 0.121493325 -0.0033342137 -0.024160983 -0.07391011 -0.24138206 0.07954424 -0.07965171 -0.14467074 -0.07002585 -0.0773525 -0.015812423 0.0057557006 -0.1933832 -0.13149679 0.23395018 -0.006486622 0.13348728 -0.012374979 0.02891123 0.050679147 0.1355291 0.26999646 -0.16549414 0.3450045 0.39178026 -0.25317773 -0.42163852 0.017745467 0.16155055 0.009768424 0.19582266 -0.27215776 -0.0076450277 0.07524666 -0.022018418 -0.02878337 -0.048408274 -0.06358587 0.056241017 -0.012695921 -0.040243503 0.08039255 -0.01908827 -0.093168214 -0.036505315 -0.037541986 -0.023711195 0.25249398 0.1359712 -0.2711851 -0.2934395 0.18451217 0.03212758 0.25020713 0.08897862 -0.30376315 -0.23174453 -0.183654 0.14074872 0.24950825 -0.02037759 -0.108936794 0.18314764
38 0.08484298 -0.4996323 0.0066122254 0.37239924 -0.124910794 0.032865927 -0.26332942 0.04371046 -0.17961381 -0.04341321 -0.37410846 -0.26453567 -0.0065957 0.015669564 0.29035395 0.28388053 0.06384602 0.21410926 0.22610432 0.19176272 -0.23040576 0.2724772 0.007896325 -0.34193912 -0.077202715 -0.27870992 0.056733433 0.22472692 -0.0012871968 -0.14461103 0.2819197 -0.115144774 0.012938968 0.24922311 -0.09162391 -0.10322309 0.03486212 -0.01070354 -0.100230485 -0.026921252 -0.12621114 -0.2699374 0.14426628 -0.13415687 0.22148813 0.10986903 -0.08452848 -0.037273843 0.041716326 0.29164764 0.24733022 -0.17779584 0.3945961 -0.040971085 -0.35030276 0.404901 0.30844924 0.23655178 -0.077609226 -0.0071435333 -0.19903083 -0.080953725 0.20032899 -0.0057219807 0.21460219 0.18582538 -0.06601295 -0.11938456 0.17708948 -0.25306252 0.24531353 -0.21118161 -0.45119584 -0.07854516 0.24443391 -0.31036606 -0.13273078 -0.18714888 -0.023311166 0.34794208 -0.07030384 -0.19483131 0.07773559 0.383772 0.20966385 -0.003019235 0.32853475 0.09441756 0.18582481 -0.06986051 0.21709682 -0.66615444 0.21125077 0.124580644 0.18426292 0.15232632 -0.13421014 -0.04617273 -0.18527836 -0.17646827 -0.031206015 -0.11718119 -0.28698674 -0.04516524 -0.035043042 0.03176498 -0.014192398 0.02328911 -0.015907569 -0.1626285 0.07090248 -0.024050623 0.3407925 0.012401767 -0.11198485 -0.011674734 0.2291315 0.08406209 0.10947484 -0.06257564 -0.014889993 -0.10971185 -0.089593396 0.32454643 -0.006496325 0.13284239 0.04589707 0.043393455
59 0.10881461 -0.28918517 0.035640065 0.3075604 0.025709381 0.050744977 -0.12698418 0.0660685 -0.21648343 -0.03104059 -0.3308305 -0.2778116 -0.16521665 0.028186928 0.21913251 0.13969566 0.022032715 0.17814152 0.21830674 0.16306882 -0.13948394 0.35530987 0.07126442 -0.25711468 0.0032058884 -0.35041067 0.07908856 0.46165946 0.015729917 -0.15476257 0.18346488 -0.02839708 0.15498398 0.28833944 -0.30020013 -0.017843252 0.090326175 0.036078673 0.089790404 -0.07685522 0.065168135 -0.12918378 0.04261078 -0.22432177 0.2669558 0.14241835 -0.017109081 -0.011861213 -0.06104193 0.3272911 0.19118536 -0.15819068 0.34582254 -0.03806784 -0.2584689 0.26259327 0.32949877 0.17659529 -0.18150167 -0.10270016 -0.13411736 -0.09839186 0.113121256 0.037985325 0.18266371 0.17234892 -0.11257769 -0.03739334 0.00088783173 -0.23797297 0.27691886 -0.30593055 -0.3518182 -0.14783113 0.07593612 -0.17363413 -0.15184006 -0.112434134 -0.15099852 0.33887595 -0.06767967 -0.01761787 0.020417746 0.14477761 0.0912293 -0.09343546 0.2462938 0.05164471 0.18130492 0.04847006 0.092379205 -0.5015434 0.08070597 0.07500631 0.052384377 0.14368929 0.008798052 -0.028764963 -0.097008206 -0.18459015 0.07586795 -0.062250797 -0.25767878 0.012186615 -0.033364877 -0.017509397 0.057483625 -0.02450539 -0.09493507 -0.029523773 -0.03694725 -0.025689872 0.22951536 -0.013192398 -0.035147578 -0.07831833 0.13614373 0.052256633 0.21909335 -0.06362079 -0.11705474 -0.08651835 -0.052638296 0.21928471 0.07364029 0.16956775 -0.10334518 0.17438193
17 0.12545456 -0.33825317 0.33258694 0.20690587 -0.12472024 -0.8375887 0.49981993 -0.41031376 -0.14187975 -0.26344305 -0.3172906 0.36151758 0.119975984 -0.17617278 0.29883745 0.40688473 -0.27950963 0.31270555 -0.092756115 -0.18565254 0.17483549 0.48388216 -0.019167406 -0.28153795 0.48423788 -0.69713587 -0.07735243 0.13270491 0.42128065 0.30443498 0.3926723 0.47731355 0.28239658 0.591755 -0.000645222 -0.6259627 -0.16309628 0.14521442 -0.009704097 0.35563248 -0.118564345 0.22911479 0.638919 0.60733145 -0.29624575 0.089693174 0.21966828 0.5246099 0.103148006 0.26451898 0.21797086 -0.41984245 0.074001245 0.1700747 0.18062595 0.41216797 0.15774174 0.0051661604 -0.090360135 0.73486185 -0.44262314 0.10149744 -0.20043604 -0.10295871 -0.2599192 0.13120964 -0.103689 -0.07288115 -0.37754238 0.42742282 -0.16909571 -0.058233723 -0.05411849 -0.109894164 0.14981376 0.047227997 -0.34371558 -0.13240804 -0.6497214 0.117584616 -0.06173352 -0.19972533 -0.23588316 0.821507 0.055485778 0.6249085 0.15187252 -0.03429471 -0.2748308 0.551662 -0.38370913 -0.3923659 0.88888776 -0.3115646 0.054789364 -0.37154964 0.5944241 0.29551667 -0.59241754 0.22623523 -0.13542525 -0.13139486 -0.14059417 0.056646187 -0.068266734 -0.04503366 0.124398984 0.3735622 0.20982756 0.021114258 0.6485075 -0.013908224 0.013145569 0.07479209 -0.5698849 -0.30777368 0.50899005 -0.05169942 -0.011130205 -0.27203083 -0.46536076 0.08328631 -0.17744727 0.30990303 -0.0014543053 -0.07508226 -0.13931294 -0.62822515
52 0.047962308 -0.37818944 0.29858497 0.26392606 -0.25363427 -0.8764914 0.5148153 -0.40483344 -0.16264294 -0.23354003 -0.41726035 0.4019949 0.09014111 -0.097002305 0.30361387 0.41452345 -0.19917344 0.38916564 -0.12985381 -0.18546098 0.19904205 0.49295843 -0.08983478 -0.25178257 0.544038 -0.71872383 -0.0970555 0.08764209 0.44288728 0.3899916 0.38557246 0.54615545 0.23475517 0.58710337 -0.10802683 -0.6511665 -0.23366015 0.11951009 0.010106199 0.3716475 -0.10683334 0.13863046 0.66570866 0.62951666 -0.27017403 0.1398074 0.26681817 0.5478756 0.102997564 0.25214309 0.22561274 -0.46482655 0.107198544 0.12844369 0.24626613 0.40508285 0.23807912 -0.109405 -0.11325824 0.74722284 -0.40235588 0.09894028 -0.21527743 -0.031665377 -0.2237691 0.18337704 -0.09251797 -0.102854595 -0.30478704 0.33801675 -0.14603288 -0.057354443 -0.13104238 -0.1748468 0.14374727 0.034220353 -0.39209154 -0.11022391 -0.660646 0.20247008 -0.11811874 -0.08553812 -0.2600352 0.7358552 0.045801893 0.57961136 0.15739162 0.009610926 -0.21850032 0.5301419 -0.2745099 -0.3854177 0.88004375 -0.2859867 0.02343046 -0.3590873 0.6154108 0.31573787 -0.6366497 0.27885208 -0.19810767 -0.08868347 -0.25769737 0.08263292 -0.11993319 -0.043841425 0.09847111 0.3922355 0.2662975 0.052785166 0.684519 -0.11449288 0.021121478 0.1206203 -0.74827635 -0.36415994 0.6108392 1.4299791e-05 0.08309262 -0.34621742 -0.5974065 0.18064186 -0.2387151 0.3794858 0.03062701 -0.01055161 -0.19183195 -0.5842645
12 0.14420187 0.23523425 0.06979146 0.017818294 0.46081862 0.04232285 0.25156826 -0.29878753 0.067523375 -0.25390407 0.04902282 -0.014778297 0.15940353 -0.108734384 0.1254937 0.06974263 -0.24275063 0.046859276 -0.066778846 -0.16142446 0.014695779 0.696289 -0.0037002484 -0.07409218 -0.20042291 -0.13886407 0.24588548 0.18945265 0.206306 -0.1445406 -0.031197812 -0.01255315 0.30896795 -0.01307059 0.09324747 -0.027441628 -0.11882587 0.17486128 -0.33493835 0.09447304 0.014353539 0.008082465 -0.037923317 -0.11110162 0.1723606 0.079205945 0.047672026 -0.20991287 0.028806882 0.01053624 0.008134778 0.12452067 -0.027497508 -0.0671065 -0.11182738 0.20686316 0.3191797 0.021771794 -0.15639096 -0.11607915 -0.09157509 0.048743725 0.06291101 -0.23860072 -0.20450455 0.060085922 0.07703306 0.062288173 -0.053568345 0.31775057 -0.0004764627 -0.07741529 -0.054688785 -0.00830661 -0.076826036 0.28430587 -0.07108007 0.09178613 -0.30583706 0.3123607 0.099715784 0.08109206 0.14557578 0.27752396 0.08410008 -0.09653439 0.09019164 -0.1830282 0.1861219 0.42501056 -0.28932914 -0.3727718 0.041297812 -0.008092799 0.24889745 0.06471406 0.02727809 0.23890392 -0.031606376 -0.07121906 0.118092634 -0.0639569 -0.027369596 0.053125884 -0.047776133 0.029588655 0.20550317 0.07343437 -0.18624109 0.19680716 0.087596744 0.086540036 0.11407492 -0.009366024 -0.08019992 -0.15620284 0.14409566 -0.24228418 -0.19750038 0.006607306 -0.10596542 -0.068671696 -0.1941529 -0.058225367 0.29208392 -0.15263261 -0.20542403 -0.06638373
67 0.41710854 0.20804484 0.05606116 -0.2987607 0.45321563 -0.07980467 0.1583609 -0.27517745 0.04576015 -0.27364862 0.117485754 0.004203725 0.01292184 -0.40287334 0.044442672 0.12727045 -0.19317985 0.19573615 0.0096703945 -0.19343728 -0.037902355 0.6459396 0.14224446 0.036879048 -0.26767415 -0.27461734 0.09529403 -0.0114563545 0.183461 -0.050673373 -0.099841826 -0.14228806 0.3291141 0.17623478 -0.03886483 0.02373818 -0.09884613 0.17315044 -0.2798964 0.03514276 0.16484456 0.030635092 -0.1285996 -0.2922103 0.10113677 -0.0028596136 -0.0025314742 -0.18992752 0.01435788 -0.06985542 -0.030677905 0.11643941 -0.18199147 -0.102609076 0.051595677 0.1693533 0.10360045 0.123453006 -0.09590753 -0.30702892 -0.26303577 0.091693066 0.18458514 -0.24503104 -0.15332502 0.1267209 0.1854339 -0.022625307 0.03981954 0.25973585 0.09934026 0.16662918 -0.044467643 -0.007964141 -0.14407857 0.14162913 -0.015828997 0.023885043 -0.17234015 0.3812945 0.022551382 0.18639238 0.07676473 0.16614278 0.11241823 -0.1605101 0.08832327 -0.068777926 -0.054701477 0.4687402 -0.28645453 -0.5312561 0.21847808 0.11068981 0.15122388 0.0059618615 -0.014600615 0.22309658 -0.011866847 -0.15181635 0.20032446 -0.17241633 -0.087000124 0.061814774 0.013001455 -0.0013422994 0.18180536 0.14807351 -0.16967198 0.02837566 -0.05289574 0.19540463 0.09798569 -0.120343134 -0.18920904 -0.21839267 0.10622629 -0.23646735 -0.13198543 0.1519796 -0.16841854 -0.2619029 -0.16637784 0.01141172 0.34757534 -0.06356196 -0.24593215 0.05179852
